<?xml version="1.0"?>
<opencv_storage>
<cascade>
  <stageType>BOOST</stageType>
  <featureType>LBP</featureType>
  <height>30</height>
  <width>24</width>
  <stageParams>
    <boostType>GAB</boostType>
    <minHitRate>9.9900001287460327e-01</minHitRate>
    <maxFalseAlarm>5.0000000000000000e-01</maxFalseAlarm>
    <weightTrimRate>9.4999999999999996e-01</weightTrimRate>
    <maxDepth>1</maxDepth>
    <maxWeakCount>100</maxWeakCount></stageParams>
  <featureParams>
    <maxCatCount>256</maxCatCount>
    <featSize>1</featSize></featureParams>
  <stageNum>15</stageNum>
  <stages>
    <!-- stage 0 -->
    <_>
      <maxWeakCount>3</maxWeakCount>
      <stageThreshold>-9.7181391716003418e-01</stageThreshold>
      <weakClassifiers>
        <_>
          <internalNodes>
            0 -1 22 -2 -69207653 -209403426 1608515007 -240387874
            1530601615 -2097409 2147483647</internalNodes>
          <leafValues>
            -9.3456220626831055e-01 8.8265109062194824e-01</leafValues></_>
        <_>
          <internalNodes>
            0 -1 71 -541196803 -81803029 -749209089 992713611 -661269028
            -69484081 -70281253 -1077952545</internalNodes>
          <leafValues>
            -7.9126918315887451e-01 8.0833470821380615e-01</leafValues></_>
        <_>
          <internalNodes>
            0 -1 36 -1 1566531447 2129330154 322076543 -536976258
            1440570847 -21043978 -262145</internalNodes>
          <leafValues>
            -7.1688842773437500e-01 7.5401747226715088e-01</leafValues></_></weakClassifiers></_>
    <!-- stage 1 -->
    <_>
      <maxWeakCount>6</maxWeakCount>
      <stageThreshold>-1.6520723104476929e+00</stageThreshold>
      <weakClassifiers>
        <_>
          <internalNodes>
            0 -1 3 -538968066 -2103297 286775519 1604319231 -538199110
            -3151654 -73666561 2147482623</internalNodes>
          <leafValues>
            -8.5487991571426392e-01 7.8102189302444458e-01</leafValues></_>
        <_>
          <internalNodes>
            0 -1 61 -11206657 -90246913 -791227681 -221079301
            -1152053489 -79740629 -273941665 -3175845</internalNodes>
          <leafValues>
            -7.7386677265167236e-01 7.3498964309692383e-01</leafValues></_>
        <_>
          <internalNodes>
            0 -1 69 -543425059 -67653286 -1747332325 993761722
            -645412708 -40109926 -276170309 -1614816321</internalNodes>
          <leafValues>
            -7.2758263349533081e-01 6.6128653287887573e-01</leafValues></_>
        <_>
          <internalNodes>
            0 -1 39 -128196609 -218242433 -805064314 805501391
            -1852161976 581935136 -486432945 -6553777</internalNodes>
          <leafValues>
            -7.6499021053314209e-01 5.7387363910675049e-01</leafValues></_>
        <_>
          <internalNodes>
            0 -1 62 1364685819 -304865 1422040575 993877981 -1144222580
            -634724085 -1153508353 -5263710</internalNodes>
          <leafValues>
            -6.0053586959838867e-01 6.0782217979431152e-01</leafValues></_>
        <_>
          <internalNodes>
            0 -1 12 -82067238 -553401152 285315281 1493635202 -653551600
            -551827454 16896171 -552614433</internalNodes>
          <leafValues>
            -5.2169138193130493e-01 6.8091392517089844e-01</leafValues></_></weakClassifiers></_>
    <!-- stage 2 -->
    <_>
      <maxWeakCount>4</maxWeakCount>
      <stageThreshold>-1.6552282571792603e+00</stageThreshold>
      <weakClassifiers>
        <_>
          <internalNodes>
            0 -1 11 -2097154 -24579 520585214 -2123361 -1162085953
            2146126491 -609223681 2147213247</internalNodes>
          <leafValues>
            -8.5450476408004761e-01 7.3045527935028076e-01</leafValues></_>
        <_>
          <internalNodes>
            0 -1 59 -150994945 -486878753 1351734215 -933610625
            -566421689 -476083969 -67154361 -8337</internalNodes>
          <leafValues>
            -7.7969902753829956e-01 6.4156913757324219e-01</leafValues></_>
        <_>
          <internalNodes>
            0 -1 60 1999852127 2145075995 -1155336033 1059011483
            -72549124 -87295525 -87360770 -17113346</internalNodes>
          <leafValues>
            -8.2894992828369141e-01 5.1644951105117798e-01</leafValues></_>
        <_>
          <internalNodes>
            0 -1 15 -11274546 -253773441 -999761850 -2886705 -643069585
            1614391908 319812477 1970273791</internalNodes>
          <leafValues>
            -7.7703464031219482e-01 4.4016480445861816e-01</leafValues></_></weakClassifiers></_>
    <!-- stage 3 -->
    <_>
      <maxWeakCount>6</maxWeakCount>
      <stageThreshold>-1.6578046083450317e+00</stageThreshold>
      <weakClassifiers>
        <_>
          <internalNodes>
            0 -1 53 -35 -1078984705 -1279262724 984612863 -2604
            1073741789 -67371523 -1140852737</internalNodes>
          <leafValues>
            -6.7719644308090210e-01 7.3416763544082642e-01</leafValues></_>
        <_>
          <internalNodes>
            0 -1 40 -41009 1543204859 -268501041 -84214017 -134324401
            -201621505 -65570 -201657345</internalNodes>
          <leafValues>
            -5.9972268342971802e-01 6.6390836238861084e-01</leafValues></_>
        <_>
          <internalNodes>
            0 -1 89 -1089383587 -5000321 -1537609602 -100136834
            2132300127 -12849542 -41293361 -1094022980</internalNodes>
          <leafValues>
            -6.5901297330856323e-01 5.3379350900650024e-01</leafValues></_>
        <_>
          <internalNodes>
            0 -1 7 -8401682 -10784570 1468789747 1943254175 -126365749
            -1680111480 1740369567 2004090558</internalNodes>
          <leafValues>
            -8.1836658716201782e-01 4.3720737099647522e-01</leafValues></_>
        <_>
          <internalNodes>
            0 -1 49 2060975854 -144844641 -97385297 -221117761 -83604914
            -16114853 -102039553 1946157050</internalNodes>
          <leafValues>
            -8.1152719259262085e-01 3.6768504977226257e-01</leafValues></_>
        <_>
          <internalNodes>
            0 -1 30 -1051922 -564332562 1931127674 -642864705 -6833940
            1351836345 2135637795 1463810047</internalNodes>
          <leafValues>
            -7.5891679525375366e-01 3.7437826395034790e-01</leafValues></_></weakClassifiers></_>
    <!-- stage 4 -->
    <_>
      <maxWeakCount>7</maxWeakCount>
      <stageThreshold>-1.8753348588943481e+00</stageThreshold>
      <weakClassifiers>
        <_>
          <internalNodes>
            0 -1 71 -738853891 -786837182 1427493759 455848915 -70397476
            -340024693 -1068772977 -1075858529</internalNodes>
          <leafValues>
            -7.2275012731552124e-01 6.8825984001159668e-01</leafValues></_>
        <_>
          <internalNodes>
            0 -1 34 1466328910 -537436713 1896962399 -210504610
            1797704335 -8189301 -298269701 1945248490</internalNodes>
          <leafValues>
            -7.1550279855728149e-01 5.1014453172683716e-01</leafValues></_>
        <_>
          <internalNodes>
            0 -1 37 -176422913 -70128691 -1701752370 870045585
            -1131164980 1938395160 -3421217 -1061559</internalNodes>
          <leafValues>
            -5.9077215194702148e-01 5.4510861635208130e-01</leafValues></_>
        <_>
          <internalNodes>
            0 -1 24 -1287162914 -35687947 1096450518 -307572461
            -106217261 2110485379 -878969921 1802558103</internalNodes>
          <leafValues>
            -7.4519234895706177e-01 4.0514028072357178e-01</leafValues></_>
        <_>
          <internalNodes>
            0 -1 25 -753151782 1565739136 622636 1364676672 -1694240086
            -1962311032 402903215 1495257307</internalNodes>
          <leafValues>
            -5.5256420373916626e-01 5.2255129814147949e-01</leafValues></_>
        <_>
          <internalNodes>
            0 -1 99 -637544995 -111024947 1424513262 -796208930
            -1014300149 -1157168913 966389723 -1163135217</internalNodes>
          <leafValues>
            -5.7239383459091187e-01 5.1150906085968018e-01</leafValues></_>
        <_>
          <internalNodes>
            0 -1 74 -121907331 -125109522 -67184129 -779552038 354292110
            -10616865 2002719035 -1615856545</internalNodes>
          <leafValues>
            -5.3750193119049072e-01 5.6197017431259155e-01</leafValues></_></weakClassifiers></_>
    <!-- stage 5 -->
    <_>
      <maxWeakCount>8</maxWeakCount>
      <stageThreshold>-1.5699893236160278e+00</stageThreshold>
      <weakClassifiers>
        <_>
          <internalNodes>
            0 -1 44 -92376321 -218173697 -66126011 -84897057 -237154467
            -486587486 -8421553 -32929</internalNodes>
          <leafValues>
            -6.2617856264114380e-01 6.6017830371856689e-01</leafValues></_>
        <_>
          <internalNodes>
            0 -1 8 -203687170 -572549462 2020727799 -2108725 -79446021
            -89181954 537720959 1600119503</internalNodes>
          <leafValues>
            -6.9157963991165161e-01 5.1942789554595947e-01</leafValues></_>
        <_>
          <internalNodes>
            0 -1 51 1427175806 -78251541 1216746687 1912734427 805306570
            -318019559 -333450241 2060428478</internalNodes>
          <leafValues>
            -6.5652656555175781e-01 4.4853809475898743e-01</leafValues></_>
        <_>
          <internalNodes>
            0 -1 73 -688522243 -90899497 -1055218177 992539933
            -252751652 -292216822 -305444065 -1361073557</internalNodes>
          <leafValues>
            -6.8599903583526611e-01 3.8500145077705383e-01</leafValues></_>
        <_>
          <internalNodes>
            0 -1 28 -286498993 -554372150 1766134099 -3274265 1104833535
            -903161717 1946056443 -222658729</internalNodes>
          <leafValues>
            -6.4876317977905273e-01 4.1499769687652588e-01</leafValues></_>
        <_>
          <internalNodes>
            0 -1 93 -546974743 -796282750 1447915559 -1878395965
            -879918835 -1953782718 1125482895 -1913681935</internalNodes>
          <leafValues>
            -6.7986315488815308e-01 3.7408033013343811e-01</leafValues></_>
        <_>
          <internalNodes>
            0 -1 33 -205521946 -222037820 -1639952370 -715712265
            -107228785 1885589646 1932256783 1929114511</internalNodes>
          <leafValues>
            -6.3437736034393311e-01 4.3713006377220154e-01</leafValues></_>
        <_>
          <internalNodes>
            0 -1 35 -181666822 294371472 273748181 1398489289 -905266518
            -754798592 636222 -586163733</internalNodes>
          <leafValues>
            -5.0782710313796997e-01 5.6133204698562622e-01</leafValues></_></weakClassifiers></_>
    <!-- stage 6 -->
    <_>
      <maxWeakCount>8</maxWeakCount>
      <stageThreshold>-1.5685578584671021e+00</stageThreshold>
      <weakClassifiers>
        <_>
          <internalNodes>
            0 -1 78 -1122930059 -163212077 486962399 -1306353579
            -2097084387 -83136231 -1139025601 -1347507623</internalNodes>
          <leafValues>
            -6.9813829660415649e-01 6.1249136924743652e-01</leafValues></_>
        <_>
          <internalNodes>
            0 -1 4 -243284513 -778963499 1406335442 -134041321 949438513
            1553268955 -1955100197 -610075991</internalNodes>
          <leafValues>
            -6.8801808357238770e-01 4.5097038149833679e-01</leafValues></_>
        <_>
          <internalNodes>
            0 -1 55 -3181967 -1014546366 -1610542927 289638402
            -536682248 -739736317 -1073548054 -1972442421</internalNodes>
          <leafValues>
            -5.9832221269607544e-01 4.7276762127876282e-01</leafValues></_>
        <_>
          <internalNodes>
            0 -1 113 -119803654 -640515846 1090637827 1360724303
            33603778 1208715392 268472490 1394596063</internalNodes>
          <leafValues>
            -5.1455330848693848e-01 5.1082128286361694e-01</leafValues></_>
        <_>
          <internalNodes>
            0 -1 84 -204524555 -744506945 369414453 -933834276
            -2130164413 -376766365 -375721523 -1343300657</internalNodes>
          <leafValues>
            -6.2955242395401001e-01 4.1479045152664185e-01</leafValues></_>
        <_>
          <internalNodes>
            0 -1 57 -683480073 -489019506 -901598784 -278208178
            165681911 596351138 2047827779 -269530245</internalNodes>
          <leafValues>
            -6.4863914251327515e-01 4.3887755274772644e-01</leafValues></_>
        <_>
          <internalNodes>
            0 -1 17 -98968894 1642726553 8450181 1398264850 193106570
            -897382392 1090777295 1326177419</internalNodes>
          <leafValues>
            -5.4799813032150269e-01 5.2751159667968750e-01</leafValues></_>
        <_>
          <internalNodes>
            0 -1 77 1357772797 -247442349 -721169121 453631959
            -491793956 -392658791 -459360278 -1079014466</internalNodes>
          <leafValues>
            -6.2368345260620117e-01 4.6997871994972229e-01</leafValues></_></weakClassifiers></_>
    <!-- stage 7 -->
    <_>
      <maxWeakCount>9</maxWeakCount>
      <stageThreshold>-1.2154831886291504e+00</stageThreshold>
      <weakClassifiers>
        <_>
          <internalNodes>
            0 -1 67 -33557035 -68157445 -21004971 -1410334789 -134218275
            -1343356970 2080374783 -1431569409</internalNodes>
          <leafValues>
            -4.5921897888183594e-01 6.4980101585388184e-01</leafValues></_>
        <_>
          <internalNodes>
            0 -1 39 2080504831 -635488995 -661612596 -785217316
            -115080689 1939286283 -1646594229 -3178881</internalNodes>
          <leafValues>
            -5.5391615629196167e-01 4.8518371582031250e-01</leafValues></_>
        <_>
          <internalNodes>
            0 -1 96 -788487784 -212131521 2013647451 1402158303
            856277982 -5528855 -1849640193 161024907</internalNodes>
          <leafValues>
            -5.6881374120712280e-01 4.7532507777214050e-01</leafValues></_>
        <_>
          <internalNodes>
            0 -1 13 -654077734 1426575360 1171456 1363001476 -1440628086
            134252544 1173707 1263000795</internalNodes>
          <leafValues>
            -5.2897429466247559e-01 4.6621745824813843e-01</leafValues></_>
        <_>
          <internalNodes>
            0 -1 9 -234370083 -644746773 -849702405 992112951 -242988979
            -41333575 -6831217 -1080887269</internalNodes>
          <leafValues>
            -5.8793830871582031e-01 4.3664425611495972e-01</leafValues></_>
        <_>
          <internalNodes>
            0 -1 110 -204226374 -754200576 16846869 1392858131 940222602
            704745482 151373003 1493685659</internalNodes>
          <leafValues>
            -5.0644910335540771e-01 4.6689268946647644e-01</leafValues></_>
        <_>
          <internalNodes>
            0 -1 54 -237011075 654857494 -1139793744 797611038
            2068464916 403247211 -487439903 -85004625</internalNodes>
          <leafValues>
            -6.0074961185455322e-01 3.9248472452163696e-01</leafValues></_>
        <_>
          <internalNodes>
            0 -1 50 -114076210 -606082659 -750025890 848875995
            -1011202744 1258744014 -408970561 1002368210</internalNodes>
          <leafValues>
            -7.7068060636520386e-01 2.9559466242790222e-01</leafValues></_>
        <_>
          <internalNodes>
            0 -1 90 993040141 -170852323 1888868639 2013793428
            -131067618 -621166398 -1820018529 -1163165556</internalNodes>
          <leafValues>
            -6.8219619989395142e-01 3.2840618491172791e-01</leafValues></_></weakClassifiers></_>
    <!-- stage 8 -->
    <_>
      <maxWeakCount>9</maxWeakCount>
      <stageThreshold>-1.5324919223785400e+00</stageThreshold>
      <weakClassifiers>
        <_>
          <internalNodes>
            0 -1 86 -1174537223 -1279525953 -247347977 286337281
            -1685198632 1340080035 -537010405 -1081099333</internalNodes>
          <leafValues>
            -5.8359622955322266e-01 5.9930008649826050e-01</leafValues></_>
        <_>
          <internalNodes>
            0 -1 72 -892600397 1089010430 -67108869 -606078888
            1589605339 -14465 2139051267 -268437677</internalNodes>
          <leafValues>
            -4.1049847006797791e-01 5.9941267967224121e-01</leafValues></_>
        <_>
          <internalNodes>
            0 -1 75 -245377543 -737611242 85058135 1369035402 1124323771
            1250535936 1587220747 -1616127841</internalNodes>
          <leafValues>
            -4.1731581091880798e-01 5.8000528812408447e-01</leafValues></_>
        <_>
          <internalNodes>
            0 -1 10 -752093046 1394544642 268554260 1359040789
            -746536822 -754843008 285275390 1259316619</internalNodes>
          <leafValues>
            -4.9025195837020874e-01 4.8299106955528259e-01</leafValues></_>
        <_>
          <internalNodes>
            0 -1 6 1553842639 -69333533 286389681 869806315 687868394
            -1616309573 -141555461 -206583555</internalNodes>
          <leafValues>
            -5.9682124853134155e-01 3.8916686177253723e-01</leafValues></_>
        <_>
          <internalNodes>
            0 -1 66 -1738610468 962302221 1947321669 352527386
            -130373476 -1165275122 2097741164 993475385</internalNodes>
          <leafValues>
            -5.4677361249923706e-01 4.4434660673141479e-01</leafValues></_>
        <_>
          <internalNodes>
            0 -1 41 -640198659 -2017177338 -619675008 724361491
            -1600712199 2110395533 -994029151 -19203525</internalNodes>
          <leafValues>
            -5.3203040361404419e-01 4.6709468960762024e-01</leafValues></_>
        <_>
          <internalNodes>
            0 -1 104 -135269440 1527845393 -750068646 1540739354
            1543957450 1191389721 2116616126 88463947</internalNodes>
          <leafValues>
            -5.5811131000518799e-01 4.3601319193840027e-01</leafValues></_>
        <_>
          <internalNodes>
            0 -1 108 1359737051 2076154016 54718705 -685914045
            1224843402 -821126495 84144347 -648296278</internalNodes>
          <leafValues>
            -3.8148021697998047e-01 6.2579876184463501e-01</leafValues></_></weakClassifiers></_>
    <!-- stage 9 -->
    <_>
      <maxWeakCount>9</maxWeakCount>
      <stageThreshold>-1.2193999290466309e+00</stageThreshold>
      <weakClassifiers>
        <_>
          <internalNodes>
            0 -1 23 -645151010 -657327917 914775554 -25133047
            -1861538181 1632319576 -1727922897 2068577163</internalNodes>
          <leafValues>
            -8.1851851940155029e-01 5.4405146837234497e-01</leafValues></_>
        <_>
          <internalNodes>
            0 -1 36 -536611041 1594581153 -2147352294 1968099331
            -2129783602 1350649865 -414309874 -128980981</internalNodes>
          <leafValues>
            -6.7472362518310547e-01 3.7576964497566223e-01</leafValues></_>
        <_>
          <internalNodes>
            0 -1 95 -236997127 -665869969 -584269693 -262863707
            -1442731701 -880103330 -635375137 -1683250705</internalNodes>
          <leafValues>
            -5.0056570768356323e-01 5.0732988119125366e-01</leafValues></_>
        <_>
          <internalNodes>
            0 -1 58 -924255545 -594876726 -621093121 -789427125
            -758909461 -17072161 2136690995 -15776509</internalNodes>
          <leafValues>
            -4.4625467061996460e-01 5.4890358448028564e-01</leafValues></_>
        <_>
          <internalNodes>
            0 -1 105 -215235878 -82866008 -2124852928 1363611890
            1804452010 -1064658418 268673451 1510731871</internalNodes>
          <leafValues>
            -4.6752297878265381e-01 5.2002745866775513e-01</leafValues></_>
        <_>
          <internalNodes>
            0 -1 31 -204087350 -1060376145 -2126449271 -841103283
            -1987478605 -930577262 -49704173 2079057486</internalNodes>
          <leafValues>
            -5.9143084287643433e-01 3.7885218858718872e-01</leafValues></_>
        <_>
          <internalNodes>
            0 -1 65 -108334694 -2055106516 -2129641408 1971392771
            -1744266582 -1207271156 273875112 454019307</internalNodes>
          <leafValues>
            -5.1022535562515259e-01 5.0546467304229736e-01</leafValues></_>
        <_>
          <internalNodes>
            0 -1 97 -693438288 -81835888 1157664922 -784248705
            -1171488634 -1618919286 1107673342 186335727</internalNodes>
          <leafValues>
            -5.3091311454772949e-01 4.6692883968353271e-01</leafValues></_>
        <_>
          <internalNodes>
            0 -1 92 -140130831 -2104786173 541115195 -1843207293
            -1544564259 1920598150 -1043951393 -2037665009</internalNodes>
          <leafValues>
            -6.8183243274688721e-01 3.4723135828971863e-01</leafValues></_></weakClassifiers></_>
    <!-- stage 10 -->
    <_>
      <maxWeakCount>11</maxWeakCount>
      <stageThreshold>-1.1061233282089233e+00</stageThreshold>
      <weakClassifiers>
        <_>
          <internalNodes>
            0 -1 59 -167052289 -1035807335 -552300089 -1039002599
            1573409603 -1584463713 -1182049209 -2159333</internalNodes>
          <leafValues>
            -6.4758366346359253e-01 5.6607890129089355e-01</leafValues></_>
        <_>
          <internalNodes>
            0 -1 48 2016598238 -65806645 -1877460775 -229507041
            -632684466 -113704677 -198995493 2066959370</internalNodes>
          <leafValues>
            -6.2228327989578247e-01 3.9841383695602417e-01</leafValues></_>
        <_>
          <internalNodes>
            0 -1 83 -1805684363 -620383399 -2147185673 -267857887
            -1433791397 -643660533 -1920141910 -1934700210</internalNodes>
          <leafValues>
            -6.8240219354629517e-01 3.7758386135101318e-01</leafValues></_>
        <_>
          <internalNodes>
            0 -1 102 -1594369816 -682273776 -1851746160 1968296156
            -1156994934 1800034696 160139467 -1325018579</internalNodes>
          <leafValues>
            -5.0599223375320435e-01 4.1736951470375061e-01</leafValues></_>
        <_>
          <internalNodes>
            0 -1 80 1365323864 -45019133 1090619775 428680105
            -1574924152 -1658543975 -1634735429 -293033942</internalNodes>
          <leafValues>
            -5.7955348491668701e-01 3.7065935134887695e-01</leafValues></_>
        <_>
          <internalNodes>
            0 -1 10 1647044826 -721317880 269713483 1162723803
            -1383945582 982091912 -1862157650 1494479023</internalNodes>
          <leafValues>
            -4.8736295104026794e-01 4.5819038152694702e-01</leafValues></_>
        <_>
          <internalNodes>
            0 -1 20 -758320562 -180037438 -1877633281 2005780939
            906929135 -1095037787 542156457 2003529229</internalNodes>
          <leafValues>
            -5.1773422956466675e-01 4.3622231483459473e-01</leafValues></_>
        <_>
          <internalNodes>
            0 -1 0 -670435793 -649503895 403728135 1560871200 1424327347
            -397737944 -1115044677 -513814245</internalNodes>
          <leafValues>
            -4.5742973685264587e-01 5.3418010473251343e-01</leafValues></_>
        <_>
          <internalNodes>
            0 -1 70 315673203 -905969522 -922515049 -405469742 327262711
            -1348829048 411270439 -553035506</internalNodes>
          <leafValues>
            -5.1732039451599121e-01 4.4509860873222351e-01</leafValues></_>
        <_>
          <internalNodes>
            0 -1 106 -1039405030 -582760280 1410011428 1091768459
            671270544 1141047560 2185871 1364185387</internalNodes>
          <leafValues>
            -5.0223594903945923e-01 4.8689264059066772e-01</leafValues></_>
        <_>
          <internalNodes>
            0 -1 100 -237513459 -35672405 1587400665 -657588594
            -1321272545 985387835 2125594367 -1685323829</internalNodes>
          <leafValues>
            -4.6515160799026489e-01 4.9574500322341919e-01</leafValues></_></weakClassifiers></_>
    <!-- stage 11 -->
    <_>
      <maxWeakCount>11</maxWeakCount>
      <stageThreshold>-1.4990186691284180e+00</stageThreshold>
      <weakClassifiers>
        <_>
          <internalNodes>
            0 -1 61 -649741329 -128073131 137414097 -221083563
            -1341629873 -1803548110 -525683841 -1550899029</internalNodes>
          <leafValues>
            -5.7499998807907104e-01 5.6791806221008301e-01</leafValues></_>
        <_>
          <internalNodes>
            0 -1 104 -172230958 1903786587 -67112974 1942977250
            -682369058 1600126683 -1730622466 1264995003</internalNodes>
          <leafValues>
            -4.6548318862915039e-01 4.7602105140686035e-01</leafValues></_>
        <_>
          <internalNodes>
            0 -1 29 -226513281 1549577807 1634843231 1347767069
            -1191597432 -1914958132 -122471910 -96101617</internalNodes>
          <leafValues>
            -4.0935948491096497e-01 5.5157440900802612e-01</leafValues></_>
        <_>
          <internalNodes>
            0 -1 46 -108334209 -1031646900 288479296 268358655
            -670280720 33557179 -1297327225 -555748885</internalNodes>
          <leafValues>
            -5.1508641242980957e-01 4.2247387766838074e-01</leafValues></_>
        <_>
          <internalNodes>
            0 -1 14 -888676401 -145228345 -1279127205 -2111285959
            -1643624432 -876063087 -1147202657 -493903870</internalNodes>
          <leafValues>
            -5.0130724906921387e-01 4.3515685200691223e-01</leafValues></_>
        <_>
          <internalNodes>
            0 -1 112 -608197990 -42399486 17862708 1966543243
            -1010767734 -1089950720 38125 1998314431</internalNodes>
          <leafValues>
            -4.7411149740219116e-01 5.0124955177307129e-01</leafValues></_>
        <_>
          <internalNodes>
            0 -1 81 -784076582 1361072776 -1878970350 1360109952
            -2063341400 -603911544 638026122 1431279631</internalNodes>
          <leafValues>
            -4.7751325368881226e-01 4.7476065158843994e-01</leafValues></_>
        <_>
          <internalNodes>
            0 -1 42 -847523515 -836321085 -20488501 -2063415094
            -799878997 -562934529 -784088037 -1164194849</internalNodes>
          <leafValues>
            -4.6223559975624084e-01 5.2190625667572021e-01</leafValues></_>
        <_>
          <internalNodes>
            0 -1 1 -1018043674 593089027 -2008424216 1932755029
            -519593269 1627832450 -3952706 891677067</internalNodes>
          <leafValues>
            -4.7937834262847900e-01 4.6210148930549622e-01</leafValues></_>
        <_>
          <internalNodes>
            0 -1 98 -1010198031 -1256987040 134275141 -1744711531
            -1073004131 -2080111487 -2138996467 -1954045743</internalNodes>
          <leafValues>
            -6.1709129810333252e-01 3.6096209287643433e-01</leafValues></_>
        <_>
          <internalNodes>
            0 -1 79 155455679 1985413329 134306205 -121633647 -905965189
            -90669024 155749887 -1417623424</internalNodes>
          <leafValues>
            -4.8087471723556519e-01 5.0953179597854614e-01</leafValues></_></weakClassifiers></_>
    <!-- stage 12 -->
    <_>
      <maxWeakCount>11</maxWeakCount>
      <stageThreshold>-1.6620838642120361e+00</stageThreshold>
      <weakClassifiers>
        <_>
          <internalNodes>
            0 -1 32 -1326130 -487675801 1612863822 -707949675 -249515097
            15693183 1732195157 1928042411</internalNodes>
          <leafValues>
            -5.3876739740371704e-01 5.7209461927413940e-01</leafValues></_>
        <_>
          <internalNodes>
            0 -1 87 -550260039 -541095748 55707673 -590894854 522179371
            -2012518280 1415180687 -1651254017</internalNodes>
          <leafValues>
            -4.2630565166473389e-01 5.0918197631835938e-01</leafValues></_>
        <_>
          <internalNodes>
            0 -1 94 -670084769 -119975800 -1878715845 -331001261
            -78999430 -1198997342 -1744269554 -21448278</internalNodes>
          <leafValues>
            -5.4569089412689209e-01 4.1405627131462097e-01</leafValues></_>
        <_>
          <internalNodes>
            0 -1 111 -749997864 -620658560 805372025 285933579
            -1417117494 184680480 4107 1465110011</internalNodes>
          <leafValues>
            -5.0299674272537231e-01 4.4766095280647278e-01</leafValues></_>
        <_>
          <internalNodes>
            0 -1 2 1308545 -394176123 621151501 -279854972 13652731
            -1600618477 650485911 -2114993579</internalNodes>
          <leafValues>
            -4.6612402796745300e-01 4.6167466044425964e-01</leafValues></_>
        <_>
          <internalNodes>
            0 -1 19 -14945839 -1731022662 1602704779 1092506200
            -2138441526 -2138509182 1510707602 -872440645</internalNodes>
          <leafValues>
            -3.8522583246231079e-01 5.4832845926284790e-01</leafValues></_>
        <_>
          <internalNodes>
            0 -1 64 1930445175 -10519464 -2122264428 991124707 176262904
            890406023 -1689779009 -33127896</internalNodes>
          <leafValues>
            -5.3492009639739990e-01 4.0454816818237305e-01</leafValues></_>
        <_>
          <internalNodes>
            0 -1 91 -544999494 1573339404 16781393 1393049601 916258840
            176734496 20162702 1402460559</internalNodes>
          <leafValues>
            -4.7056287527084351e-01 4.5154389739036560e-01</leafValues></_>
        <_>
          <internalNodes>
            0 -1 18 -145556258 1447563392 537919672 1567698947
            -846820882 689996737 2131978 488343807</internalNodes>
          <leafValues>
            -4.7553837299346924e-01 4.6010103821754456e-01</leafValues></_>
        <_>
          <internalNodes>
            0 -1 47 -1029551953 -923381317 -2009430897 -1160642397
            -485969089 -1214820550 -225965245 -150762751</internalNodes>
          <leafValues>
            -5.1744806766510010e-01 4.2921787500381470e-01</leafValues></_>
        <_>
          <internalNodes>
            0 -1 85 -799147159 -795228158 286640327 -1316765248
            -133201779 537567232 1200324873 -2117096305</internalNodes>
          <leafValues>
            -7.5923901796340942e-01 2.7531442046165466e-01</leafValues></_></weakClassifiers></_>
    <!-- stage 13 -->
    <_>
      <maxWeakCount>11</maxWeakCount>
      <stageThreshold>-1.0392035245895386e+00</stageThreshold>
      <weakClassifiers>
        <_>
          <internalNodes>
            0 -1 76 -11202223 -79954949 -16842753 -1036469505 -10658749
            -49281 -9121 -1966429441</internalNodes>
          <leafValues>
            -5.3539252281188965e-01 5.7988166809082031e-01</leafValues></_>
        <_>
          <internalNodes>
            0 -1 16 185803075 -848259619 1157677511 -539156079
            -1442838285 -2095054815 -124667181 -763182589</internalNodes>
          <leafValues>
            -5.8794760704040527e-01 3.8199645280838013e-01</leafValues></_>
        <_>
          <internalNodes>
            0 -1 88 -97269558 -213491874 1789043330 1395596100
            1911743179 307512406 1886838987 -211592113</internalNodes>
          <leafValues>
            -4.0858694911003113e-01 5.5397981405258179e-01</leafValues></_>
        <_>
          <internalNodes>
            0 -1 26 -743310598 1367048344 285311192 1565904925
            1124268714 -670922744 167881679 1494204571</internalNodes>
          <leafValues>
            -4.7505483031272888e-01 4.5426145195960999e-01</leafValues></_>
        <_>
          <internalNodes>
            0 -1 101 -116797806 -205060324 -787627622 2035966090
            447320986 1393205255 2074125311 494230619</internalNodes>
          <leafValues>
            -5.5959933996200562e-01 3.7003278732299805e-01</leafValues></_>
        <_>
          <internalNodes>
            0 -1 52 1398406868 -2363303 990126487 1494106760 1645226552
            -1449123520 -678458369 1273989258</internalNodes>
          <leafValues>
            -5.4924309253692627e-01 3.9567291736602783e-01</leafValues></_>
        <_>
          <internalNodes>
            0 -1 56 -706787475 1124089902 29544670 419430473 -1666695092
            1529545279 -1065315900 -1165037601</internalNodes>
          <leafValues>
            -5.9436297416687012e-01 3.6189109086990356e-01</leafValues></_>
        <_>
          <internalNodes>
            0 -1 45 -200088853 -804600635 -1338915233 -1874116469
            -230391687 -22048616 -268214693 -1636874209</internalNodes>
          <leafValues>
            -5.2354741096496582e-01 4.3336620926856995e-01</leafValues></_>
        <_>
          <internalNodes>
            0 -1 107 -549036084 1427908240 -1043275618 1662828755
            -167545894 1579489285 1325581562 1265997851</internalNodes>
          <leafValues>
            -5.1856976747512817e-01 4.3123668432235718e-01</leafValues></_>
        <_>
          <internalNodes>
            0 -1 114 -477892366 1493340195 -1870196560 830538001
            1218609646 704758029 201783464 523981583</internalNodes>
          <leafValues>
            -5.3280043601989746e-01 3.9982226490974426e-01</leafValues></_>
        <_>
          <internalNodes>
            0 -1 21 13093935 -800095555 83890635 -586710894 -2120880717
            -1047445352 -1929188677 -200810223</internalNodes>
          <leafValues>
            -4.7901165485382080e-01 4.7489833831787109e-01</leafValues></_></weakClassifiers></_>
    <!-- stage 14 -->
    <_>
      <maxWeakCount>11</maxWeakCount>
      <stageThreshold>-1.1030969619750977e+00</stageThreshold>
      <weakClassifiers>
        <_>
          <internalNodes>
            0 -1 68 2138275443 -269549521 -965220457 -286339345
            2145608999 -403247489 -143137289 -806433026</internalNodes>
          <leafValues>
            -4.7291541099548340e-01 5.7928228378295898e-01</leafValues></_>
        <_>
          <internalNodes>
            0 -1 74 2058342907 -1060963602 -606086149 -639780646
            1465867162 -2490401 2002736959 -543435431</internalNodes>
          <leafValues>
            -4.4698643684387207e-01 5.3251802921295166e-01</leafValues></_>
        <_>
          <internalNodes>
            0 -1 27 -673459237 1477673664 16973905 1165709535
            -1689263126 -383876416 1392761611 -544225025</internalNodes>
          <leafValues>
            -3.2460868358612061e-01 6.4396673440933228e-01</leafValues></_>
        <_>
          <internalNodes>
            0 -1 103 -1730672562 -555792417 1879106427 1348410618
            -1710910950 -879029622 -107820421 839918865</internalNodes>
          <leafValues>
            -6.7938697338104248e-01 3.1587150692939758e-01</leafValues></_>
        <_>
          <internalNodes>
            0 -1 82 -449577893 1364263434 1108017475 1364680785
            -1542988086 -905748478 -2112898881 -1638936981</internalNodes>
          <leafValues>
            -3.7537941336631775e-01 5.6451380252838135e-01</leafValues></_>
        <_>
          <internalNodes>
            0 -1 90 1060230013 -1097777 2063597563 -71681299 -671788833
            -1610629249 2119556607 -1611857914</internalNodes>
          <leafValues>
            -3.9639642834663391e-01 5.2092421054840088e-01</leafValues></_>
        <_>
          <internalNodes>
            0 -1 43 -16883717 -218174465 -67379254 -270864673 -75542533
            -469763329 -559137 -268435713</internalNodes>
          <leafValues>
            -3.9910817146301270e-01 5.2603346109390259e-01</leafValues></_>
        <_>
          <internalNodes>
            0 -1 38 -15224173 1534085723 806523136 1581494737
            -1056733442 1207959843 173149706 -357066622</internalNodes>
          <leafValues>
            -6.0629367828369141e-01 3.6527878046035767e-01</leafValues></_>
        <_>
          <internalNodes>
            0 -1 109 -162532357 -591316238 1493242265 219136127
            -1281105766 -695680510 -532075938 -615516001</internalNodes>
          <leafValues>
            -3.6534789204597473e-01 6.4284831285476685e-01</leafValues></_>
        <_>
          <internalNodes>
            0 -1 5 -145032461 -739012153 1344340825 1229444165
            -1685411334 -2105376758 -1572165089 -880161153</internalNodes>
          <leafValues>
            -3.0470305681228638e-01 6.9648504257202148e-01</leafValues></_>
        <_>
          <internalNodes>
            0 -1 63 -217430834 -153349718 336253144 819097678
            -1052094902 2031730699 1640548719 -82642501</internalNodes>
          <leafValues>
            -6.0045087337493896e-01 3.7277761101722717e-01</leafValues></_></weakClassifiers></_></stages>
  <features>
    <_>
      <rect>
        0 4 5 5</rect></_>
    <_>
      <rect>
        0 6 4 8</rect></_>
    <_>
      <rect>
        2 1 3 3</rect></_>
    <_>
      <rect>
        2 3 6 7</rect></_>
    <_>
      <rect>
        2 9 5 6</rect></_>
    <_>
      <rect>
        2 13 2 2</rect></_>
    <_>
      <rect>
        3 3 5 4</rect></_>
    <_>
      <rect>
        3 3 5 5</rect></_>
    <_>
      <rect>
        3 4 7 8</rect></_>
    <_>
      <rect>
        3 10 4 6</rect></_>
    <_>
      <rect>
        3 11 1 3</rect></_>
    <_>
      <rect>
        3 11 6 4</rect></_>
    <_>
      <rect>
        3 12 1 3</rect></_>
    <_>
      <rect>
        3 13 1 3</rect></_>
    <_>
      <rect>
        3 13 5 5</rect></_>
    <_>
      <rect>
        4 7 3 4</rect></_>
    <_>
      <rect>
        4 7 4 2</rect></_>
    <_>
      <rect>
        4 13 1 3</rect></_>
    <_>
      <rect>
        4 18 1 2</rect></_>
    <_>
      <rect>
        4 19 3 2</rect></_>
    <_>
      <rect>
        5 0 5 4</rect></_>
    <_>
      <rect>
        5 3 3 2</rect></_>
    <_>
      <rect>
        5 5 4 7</rect></_>
    <_>
      <rect>
        5 12 3 3</rect></_>
    <_>
      <rect>
        5 12 3 4</rect></_>
    <_>
      <rect>
        5 14 1 3</rect></_>
    <_>
      <rect>
        5 15 1 3</rect></_>
    <_>
      <rect>
        5 18 2 2</rect></_>
    <_>
      <rect>
        6 2 3 4</rect></_>
    <_>
      <rect>
        6 3 1 3</rect></_>
    <_>
      <rect>
        6 6 2 5</rect></_>
    <_>
      <rect>
        6 7 2 3</rect></_>
    <_>
      <rect>
        6 8 2 3</rect></_>
    <_>
      <rect>
        6 9 2 3</rect></_>
    <_>
      <rect>
        6 15 5 2</rect></_>
    <_>
      <rect>
        6 17 1 3</rect></_>
    <_>
      <rect>
        7 8 3 7</rect></_>
    <_>
      <rect>
        7 9 3 4</rect></_>
    <_>
      <rect>
        7 9 4 7</rect></_>
    <_>
      <rect>
        7 10 3 3</rect></_>
    <_>
      <rect>
        8 5 4 5</rect></_>
    <_>
      <rect>
        8 8 1 2</rect></_>
    <_>
      <rect>
        8 9 1 3</rect></_>
    <_>
      <rect>
        8 9 3 3</rect></_>
    <_>
      <rect>
        8 10 3 3</rect></_>
    <_>
      <rect>
        8 11 1 2</rect></_>
    <_>
      <rect>
        8 11 2 2</rect></_>
    <_>
      <rect>
        8 13 1 1</rect></_>
    <_>
      <rect>
        8 13 1 2</rect></_>
    <_>
      <rect>
        8 14 3 2</rect></_>
    <_>
      <rect>
        8 15 2 2</rect></_>
    <_>
      <rect>
        8 16 3 2</rect></_>
    <_>
      <rect>
        8 17 3 2</rect></_>
    <_>
      <rect>
        9 6 2 6</rect></_>
    <_>
      <rect>
        9 8 1 2</rect></_>
    <_>
      <rect>
        9 8 1 3</rect></_>
    <_>
      <rect>
        9 9 1 2</rect></_>
    <_>
      <rect>
        9 11 2 2</rect></_>
    <_>
      <rect>
        9 12 1 2</rect></_>
    <_>
      <rect>
        9 12 2 2</rect></_>
    <_>
      <rect>
        9 12 3 5</rect></_>
    <_>
      <rect>
        9 13 3 2</rect></_>
    <_>
      <rect>
        9 15 3 3</rect></_>
    <_>
      <rect>
        9 16 1 1</rect></_>
    <_>
      <rect>
        9 16 4 3</rect></_>
    <_>
      <rect>
        9 21 1 2</rect></_>
    <_>
      <rect>
        10 0 4 5</rect></_>
    <_>
      <rect>
        10 3 1 7</rect></_>
    <_>
      <rect>
        10 7 2 3</rect></_>
    <_>
      <rect>
        10 9 4 6</rect></_>
    <_>
      <rect>
        10 10 2 2</rect></_>
    <_>
      <rect>
        10 10 3 5</rect></_>
    <_>
      <rect>
        10 12 1 2</rect></_>
    <_>
      <rect>
        10 12 2 3</rect></_>
    <_>
      <rect>
        10 13 1 2</rect></_>
    <_>
      <rect>
        10 14 1 2</rect></_>
    <_>
      <rect>
        10 14 2 2</rect></_>
    <_>
      <rect>
        10 14 2 3</rect></_>
    <_>
      <rect>
        10 14 3 2</rect></_>
    <_>
      <rect>
        10 17 3 1</rect></_>
    <_>
      <rect>
        10 17 3 2</rect></_>
    <_>
      <rect>
        10 21 1 2</rect></_>
    <_>
      <rect>
        11 3 2 2</rect></_>
    <_>
      <rect>
        11 5 3 6</rect></_>
    <_>
      <rect>
        11 6 3 5</rect></_>
    <_>
      <rect>
        11 7 2 6</rect></_>
    <_>
      <rect>
        11 9 3 6</rect></_>
    <_>
      <rect>
        11 14 1 2</rect></_>
    <_>
      <rect>
        11 15 1 1</rect></_>
    <_>
      <rect>
        11 15 2 2</rect></_>
    <_>
      <rect>
        11 16 2 2</rect></_>
    <_>
      <rect>
        11 22 1 2</rect></_>
    <_>
      <rect>
        12 3 2 8</rect></_>
    <_>
      <rect>
        12 7 2 6</rect></_>
    <_>
      <rect>
        12 12 3 2</rect></_>
    <_>
      <rect>
        12 12 3 4</rect></_>
    <_>
      <rect>
        12 14 3 4</rect></_>
    <_>
      <rect>
        12 16 1 1</rect></_>
    <_>
      <rect>
        13 7 1 6</rect></_>
    <_>
      <rect>
        13 9 3 5</rect></_>
    <_>
      <rect>
        13 11 3 4</rect></_>
    <_>
      <rect>
        13 15 3 4</rect></_>
    <_>
      <rect>
        13 17 1 1</rect></_>
    <_>
      <rect>
        13 17 2 2</rect></_>
    <_>
      <rect>
        14 17 3 3</rect></_>
    <_>
      <rect>
        15 3 1 3</rect></_>
    <_>
      <rect>
        15 4 1 3</rect></_>
    <_>
      <rect>
        15 18 3 2</rect></_>
    <_>
      <rect>
        16 3 1 3</rect></_>
    <_>
      <rect>
        16 6 2 2</rect></_>
    <_>
      <rect>
        17 6 1 3</rect></_>
    <_>
      <rect>
        18 7 1 3</rect></_>
    <_>
      <rect>
        18 8 1 3</rect></_>
    <_>
      <rect>
        19 9 1 3</rect></_>
    <_>
      <rect>
        19 11 1 2</rect></_></features></cascade>
</opencv_storage>
