<?xml version="1.0"?>
<opencv_storage>
<cascade>
  <stageType>BOOST</stageType>
  <featureType>HAAR</featureType>
  <height>20</height>
  <width>20</width>
  <stageParams>
    <boostType>GAB</boostType>
    <minHitRate>9.9500000476837158e-01</minHitRate>
    <maxFalseAlarm>5.0000000000000000e-01</maxFalseAlarm>
    <weightTrimRate>9.4999999999999996e-01</weightTrimRate>
    <maxDepth>1</maxDepth>
    <maxWeakCount>100</maxWeakCount></stageParams>
  <featureParams>
    <maxCatCount>0</maxCatCount>
    <featSize>1</featSize>
    <mode>BASIC</mode></featureParams>
  <stageNum>15</stageNum>
  <stages>
    <!-- stage 0 -->
    <_>
      <maxWeakCount>6</maxWeakCount>
      <stageThreshold>-1.7356454133987427e+00</stageThreshold>
      <weakClassifiers>
        <_>
          <internalNodes>
            0 -1 148 -2.4910544976592064e-02</internalNodes>
          <leafValues>
            5.4118090867996216e-01 -8.4540849924087524e-01</leafValues></_>
        <_>
          <internalNodes>
            0 -1 208 -5.1995469257235527e-03</internalNodes>
          <leafValues>
            4.7916835546493530e-01 -6.7511010169982910e-01</leafValues></_>
        <_>
          <internalNodes>
            0 -1 24 1.9498511683195829e-03</internalNodes>
          <leafValues>
            -4.5873755216598511e-01 6.2826639413833618e-01</leafValues></_>
        <_>
          <internalNodes>
            0 -1 185 -2.6116478256881237e-03</internalNodes>
          <leafValues>
            4.3834000825881958e-01 -5.9974062442779541e-01</leafValues></_>
        <_>
          <internalNodes>
            0 -1 94 -4.8985746689140797e-03</internalNodes>
          <leafValues>
            5.1338595151901245e-01 -4.3005177378654480e-01</leafValues></_>
        <_>
          <internalNodes>
            0 -1 245 -7.6114549301564693e-04</internalNodes>
          <leafValues>
            3.1049075722694397e-01 -7.0811527967453003e-01</leafValues></_></weakClassifiers></_>
    <!-- stage 1 -->
    <_>
      <maxWeakCount>9</maxWeakCount>
      <stageThreshold>-1.8028063774108887e+00</stageThreshold>
      <weakClassifiers>
        <_>
          <internalNodes>
            0 -1 196 -1.7884368076920509e-02</internalNodes>
          <leafValues>
            2.9849770665168762e-01 -8.0087000131607056e-01</leafValues></_>
        <_>
          <internalNodes>
            0 -1 24 3.6592828109860420e-03</internalNodes>
          <leafValues>
            -4.6908724308013916e-01 6.1728364229202271e-01</leafValues></_>
        <_>
          <internalNodes>
            0 -1 169 4.9808165058493614e-03</internalNodes>
          <leafValues>
            -6.7433995008468628e-01 3.6443001031875610e-01</leafValues></_>
        <_>
          <internalNodes>
            0 -1 216 -3.8191757630556822e-03</internalNodes>
          <leafValues>
            3.8601967692375183e-01 -5.9112471342086792e-01</leafValues></_>
        <_>
          <internalNodes>
            0 -1 94 -5.4623712785542011e-03</internalNodes>
          <leafValues>
            4.5560243725776672e-01 -3.6384010314941406e-01</leafValues></_>
        <_>
          <internalNodes>
            0 -1 233 -3.0669206753373146e-03</internalNodes>
          <leafValues>
            2.0402321219444275e-01 -7.7649736404418945e-01</leafValues></_>
        <_>
          <internalNodes>
            0 -1 73 -4.2924382723867893e-03</internalNodes>
          <leafValues>
            4.2909657955169678e-01 -3.8782706856727600e-01</leafValues></_>
        <_>
          <internalNodes>
            0 -1 100 8.6789131164550781e-03</internalNodes>
          <leafValues>
            -2.2102759778499603e-01 6.1874026060104370e-01</leafValues></_>
        <_>
          <internalNodes>
            0 -1 4 -1.0949008166790009e-02</internalNodes>
          <leafValues>
            6.8436348438262939e-01 -1.9370800256729126e-01</leafValues></_></weakClassifiers></_>
    <!-- stage 2 -->
    <_>
      <maxWeakCount>10</maxWeakCount>
      <stageThreshold>-1.8995254039764404e+00</stageThreshold>
      <weakClassifiers>
        <_>
          <internalNodes>
            0 -1 204 3.1710542738437653e-02</internalNodes>
          <leafValues>
            -6.5317916870117188e-01 3.2427844405174255e-01</leafValues></_>
        <_>
          <internalNodes>
            0 -1 108 9.0944934636354446e-03</internalNodes>
          <leafValues>
            -6.7190366983413696e-01 2.4490813910961151e-01</leafValues></_>
        <_>
          <internalNodes>
            0 -1 39 -3.5856396425515413e-03</internalNodes>
          <leafValues>
            5.1376408338546753e-01 -3.5357528924942017e-01</leafValues></_>
        <_>
          <internalNodes>
            0 -1 98 -1.0647453367710114e-02</internalNodes>
          <leafValues>
            3.1283423304557800e-01 -5.9371662139892578e-01</leafValues></_>
        <_>
          <internalNodes>
            0 -1 227 -4.5410455204546452e-03</internalNodes>
          <leafValues>
            2.5559642910957336e-01 -6.2905925512313843e-01</leafValues></_>
        <_>
          <internalNodes>
            0 -1 28 -1.6369916498661041e-02</internalNodes>
          <leafValues>
            -6.5688979625701904e-01 2.3838680982589722e-01</leafValues></_>
        <_>
          <internalNodes>
            0 -1 99 1.0194648057222366e-02</internalNodes>
          <leafValues>
            -2.7181860804557800e-01 5.9993880987167358e-01</leafValues></_>
        <_>
          <internalNodes>
            0 -1 161 -2.2859886288642883e-02</internalNodes>
          <leafValues>
            -8.3067375421524048e-01 2.1020986139774323e-01</leafValues></_>
        <_>
          <internalNodes>
            0 -1 219 -2.7886228635907173e-03</internalNodes>
          <leafValues>
            1.6469565033912659e-01 -6.3299095630645752e-01</leafValues></_>
        <_>
          <internalNodes>
            0 -1 183 -3.4638219512999058e-03</internalNodes>
          <leafValues>
            4.6959641575813293e-01 -2.4575603008270264e-01</leafValues></_></weakClassifiers></_>
    <!-- stage 3 -->
    <_>
      <maxWeakCount>12</maxWeakCount>
      <stageThreshold>-1.5223445892333984e+00</stageThreshold>
      <weakClassifiers>
        <_>
          <internalNodes>
            0 -1 211 -1.4117033220827579e-02</internalNodes>
          <leafValues>
            1.3202698528766632e-01 -6.8779057264328003e-01</leafValues></_>
        <_>
          <internalNodes>
            0 -1 54 9.5676844939589500e-03</internalNodes>
          <leafValues>
            -6.3850677013397217e-01 2.0907235145568848e-01</leafValues></_>
        <_>
          <internalNodes>
            0 -1 53 1.1650751344859600e-02</internalNodes>
          <leafValues>
            -3.8146790862083435e-01 3.4516459703445435e-01</leafValues></_>
        <_>
          <internalNodes>
            0 -1 61 -1.6110949218273163e-02</internalNodes>
          <leafValues>
            3.4482800960540771e-01 -3.6999136209487915e-01</leafValues></_>
        <_>
          <internalNodes>
            0 -1 172 6.7714853212237358e-03</internalNodes>
          <leafValues>
            -6.5128844976425171e-01 2.0678673684597015e-01</leafValues></_>
        <_>
          <internalNodes>
            0 -1 217 -1.8525286577641964e-03</internalNodes>
          <leafValues>
            1.7471976578235626e-01 -6.9782549142837524e-01</leafValues></_>
        <_>
          <internalNodes>
            0 -1 22 5.5206650868058205e-03</internalNodes>
          <leafValues>
            -2.6321703195571899e-01 5.4348284006118774e-01</leafValues></_>
        <_>
          <internalNodes>
            0 -1 263 -1.0418397374451160e-02</internalNodes>
          <leafValues>
            6.6651970148086548e-01 -1.6422513127326965e-01</leafValues></_>
        <_>
          <internalNodes>
            0 -1 17 -7.0090792141854763e-03</internalNodes>
          <leafValues>
            3.5531058907508850e-01 -3.4341049194335938e-01</leafValues></_>
        <_>
          <internalNodes>
            0 -1 47 1.3447871431708336e-02</internalNodes>
          <leafValues>
            -2.4245557188987732e-01 4.8976221680641174e-01</leafValues></_>
        <_>
          <internalNodes>
            0 -1 268 2.4299304932355881e-03</internalNodes>
          <leafValues>
            -2.1939630806446075e-01 4.6008846163749695e-01</leafValues></_>
        <_>
          <internalNodes>
            0 -1 112 8.1336181610822678e-03</internalNodes>
          <leafValues>
            1.7165993154048920e-01 -7.2476142644882202e-01</leafValues></_></weakClassifiers></_>
    <!-- stage 4 -->
    <_>
      <maxWeakCount>14</maxWeakCount>
      <stageThreshold>-1.7119922637939453e+00</stageThreshold>
      <weakClassifiers>
        <_>
          <internalNodes>
            0 -1 215 6.3400128856301308e-03</internalNodes>
          <leafValues>
            -6.8474328517913818e-01 1.4454276859760284e-01</leafValues></_>
        <_>
          <internalNodes>
            0 -1 220 6.1946669593453407e-03</internalNodes>
          <leafValues>
            -5.2190405130386353e-01 2.3656757175922394e-01</leafValues></_>
        <_>
          <internalNodes>
            0 -1 178 5.5457809939980507e-03</internalNodes>
          <leafValues>
            -2.8150296211242676e-01 4.4421750307083130e-01</leafValues></_>
        <_>
          <internalNodes>
            0 -1 24 5.6184306740760803e-03</internalNodes>
          <leafValues>
            -2.0787440240383148e-01 5.2991515398025513e-01</leafValues></_>
        <_>
          <internalNodes>
            0 -1 227 -2.4012802168726921e-03</internalNodes>
          <leafValues>
            1.6427586972713470e-01 -6.9344532489776611e-01</leafValues></_>
        <_>
          <internalNodes>
            0 -1 130 -9.4339484348893166e-04</internalNodes>
          <leafValues>
            3.0577692389488220e-01 -3.6445537209510803e-01</leafValues></_>
        <_>
          <internalNodes>
            0 -1 173 -3.6685891449451447e-02</internalNodes>
          <leafValues>
            -7.3233556747436523e-01 1.4395660161972046e-01</leafValues></_>
        <_>
          <internalNodes>
            0 -1 265 -9.6524143591523170e-03</internalNodes>
          <leafValues>
            5.1193737983703613e-01 -1.9881573319435120e-01</leafValues></_>
        <_>
          <internalNodes>
            0 -1 109 -1.6208840534090996e-02</internalNodes>
          <leafValues>
            -8.8336080312728882e-01 1.2923848628997803e-01</leafValues></_>
        <_>
          <internalNodes>
            0 -1 247 -7.0243459194898605e-03</internalNodes>
          <leafValues>
            -6.8297463655471802e-01 8.8932871818542480e-02</leafValues></_>
        <_>
          <internalNodes>
            0 -1 64 -5.8326337486505508e-02</internalNodes>
          <leafValues>
            -8.2505571842193604e-01 7.8732199966907501e-02</leafValues></_>
        <_>
          <internalNodes>
            0 -1 255 1.3786491472274065e-03</internalNodes>
          <leafValues>
            7.9422987997531891e-02 -8.4504556655883789e-01</leafValues></_>
        <_>
          <internalNodes>
            0 -1 18 -9.2826527543365955e-04</internalNodes>
          <leafValues>
            3.3310389518737793e-01 -2.6540368795394897e-01</leafValues></_>
        <_>
          <internalNodes>
            0 -1 190 -1.0258220136165619e-02</internalNodes>
          <leafValues>
            -8.4267795085906982e-01 1.2814819812774658e-01</leafValues></_></weakClassifiers></_>
    <!-- stage 5 -->
    <_>
      <maxWeakCount>16</maxWeakCount>
      <stageThreshold>-1.6271309852600098e+00</stageThreshold>
      <weakClassifiers>
        <_>
          <internalNodes>
            0 -1 1 1.7092304304242134e-02</internalNodes>
          <leafValues>
            -5.1974725723266602e-01 3.7325349450111389e-01</leafValues></_>
        <_>
          <internalNodes>
            0 -1 148 -2.8990250080823898e-02</internalNodes>
          <leafValues>
            2.7212515473365784e-01 -5.0834393501281738e-01</leafValues></_>
        <_>
          <internalNodes>
            0 -1 101 -3.4617395140230656e-03</internalNodes>
          <leafValues>
            4.4346019625663757e-01 -2.5447711348533630e-01</leafValues></_>
        <_>
          <internalNodes>
            0 -1 53 5.7644965127110481e-03</internalNodes>
          <leafValues>
            -4.1689524054527283e-01 2.7663242816925049e-01</leafValues></_>
        <_>
          <internalNodes>
            0 -1 181 -4.6147417742758989e-04</internalNodes>
          <leafValues>
            1.9428010284900665e-01 -5.9936290979385376e-01</leafValues></_>
        <_>
          <internalNodes>
            0 -1 43 -1.8232913687825203e-02</internalNodes>
          <leafValues>
            -6.5571486949920654e-01 1.3491985201835632e-01</leafValues></_>
        <_>
          <internalNodes>
            0 -1 208 -5.4780235514044762e-03</internalNodes>
          <leafValues>
            2.3914663493633270e-01 -4.0030518174171448e-01</leafValues></_>
        <_>
          <internalNodes>
            0 -1 11 -1.9403120968490839e-03</internalNodes>
          <leafValues>
            3.1684264540672302e-01 -2.9713830351829529e-01</leafValues></_>
        <_>
          <internalNodes>
            0 -1 241 -1.3328499626368284e-03</internalNodes>
          <leafValues>
            1.4777421951293945e-01 -6.2497156858444214e-01</leafValues></_>
        <_>
          <internalNodes>
            0 -1 23 -1.2542093172669411e-02</internalNodes>
          <leafValues>
            3.8974553346633911e-01 -2.1635614335536957e-01</leafValues></_>
        <_>
          <internalNodes>
            0 -1 103 -1.7502696719020605e-03</internalNodes>
          <leafValues>
            3.0483826994895935e-01 -2.8542974591255188e-01</leafValues></_>
        <_>
          <internalNodes>
            0 -1 235 -1.2451373040676117e-02</internalNodes>
          <leafValues>
            3.6399880051612854e-01 -2.3160620033740997e-01</leafValues></_>
        <_>
          <internalNodes>
            0 -1 146 6.9551779888570309e-03</internalNodes>
          <leafValues>
            -1.7270635068416595e-01 4.8627930879592896e-01</leafValues></_>
        <_>
          <internalNodes>
            0 -1 7 -4.0273346006870270e-02</internalNodes>
          <leafValues>
            5.6662034988403320e-01 -1.4520451426506042e-01</leafValues></_>
        <_>
          <internalNodes>
            0 -1 138 -1.8751248717308044e-02</internalNodes>
          <leafValues>
            -7.8397053480148315e-01 1.1438283324241638e-01</leafValues></_>
        <_>
          <internalNodes>
            0 -1 158 4.0952358394861221e-03</internalNodes>
          <leafValues>
            8.8449217379093170e-02 -8.4376722574234009e-01</leafValues></_></weakClassifiers></_>
    <!-- stage 6 -->
    <_>
      <maxWeakCount>18</maxWeakCount>
      <stageThreshold>-1.7011318206787109e+00</stageThreshold>
      <weakClassifiers>
        <_>
          <internalNodes>
            0 -1 42 1.2963941320776939e-02</internalNodes>
          <leafValues>
            -4.9470448493957520e-01 3.6849924921989441e-01</leafValues></_>
        <_>
          <internalNodes>
            0 -1 248 1.7410292057320476e-03</internalNodes>
          <leafValues>
            -4.8406821489334106e-01 2.5338849425315857e-01</leafValues></_>
        <_>
          <internalNodes>
            0 -1 83 2.8855782002210617e-02</internalNodes>
          <leafValues>
            -5.2592951059341431e-01 1.9490879774093628e-01</leafValues></_>
        <_>
          <internalNodes>
            0 -1 36 -2.0911362953484058e-03</internalNodes>
          <leafValues>
            3.2816725969314575e-01 -2.7088680863380432e-01</leafValues></_>
        <_>
          <internalNodes>
            0 -1 151 -7.5173061341047287e-03</internalNodes>
          <leafValues>
            3.4029775857925415e-01 -2.5290161371231079e-01</leafValues></_>
        <_>
          <internalNodes>
            0 -1 262 -9.0203210711479187e-03</internalNodes>
          <leafValues>
            5.3376162052154541e-01 -1.8363744020462036e-01</leafValues></_>
        <_>
          <internalNodes>
            0 -1 216 -3.2925722189247608e-03</internalNodes>
          <leafValues>
            1.9702123105525970e-01 -4.7767701745033264e-01</leafValues></_>
        <_>
          <internalNodes>
            0 -1 78 -2.0056068897247314e-03</internalNodes>
          <leafValues>
            2.4777843058109283e-01 -3.1103456020355225e-01</leafValues></_>
        <_>
          <internalNodes>
            0 -1 2 2.6703853160142899e-02</internalNodes>
          <leafValues>
            -1.6628164052963257e-01 4.4332218170166016e-01</leafValues></_>
        <_>
          <internalNodes>
            0 -1 256 -1.8591613043099642e-03</internalNodes>
          <leafValues>
            3.4056583046913147e-01 -2.1409803628921509e-01</leafValues></_>
        <_>
          <internalNodes>
            0 -1 226 1.3515299651771784e-03</internalNodes>
          <leafValues>
            -2.6272034645080566e-01 2.9156529903411865e-01</leafValues></_>
        <_>
          <internalNodes>
            0 -1 65 2.8006810694932938e-02</internalNodes>
          <leafValues>
            1.2726283073425293e-01 -6.4728701114654541e-01</leafValues></_>
        <_>
          <internalNodes>
            0 -1 81 -7.4248545570299029e-04</internalNodes>
          <leafValues>
            2.9843127727508545e-01 -2.5775387883186340e-01</leafValues></_>
        <_>
          <internalNodes>
            0 -1 139 1.6676704399287701e-04</internalNodes>
          <leafValues>
            1.5254157781600952e-01 -4.7485765814781189e-01</leafValues></_>
        <_>
          <internalNodes>
            0 -1 160 -5.2311327308416367e-03</internalNodes>
          <leafValues>
            -7.0604455471038818e-01 1.0330124199390411e-01</leafValues></_>
        <_>
          <internalNodes>
            0 -1 133 8.9102471247315407e-03</internalNodes>
          <leafValues>
            -1.5435926616191864e-01 5.2688604593276978e-01</leafValues></_>
        <_>
          <internalNodes>
            0 -1 200 7.7342586591839790e-03</internalNodes>
          <leafValues>
            -9.6443660557270050e-02 6.8968909978866577e-01</leafValues></_>
        <_>
          <internalNodes>
            0 -1 121 -1.3196090236306190e-02</internalNodes>
          <leafValues>
            6.4178276062011719e-01 -9.4750761985778809e-02</leafValues></_></weakClassifiers></_>
    <!-- stage 7 -->
    <_>
      <maxWeakCount>21</maxWeakCount>
      <stageThreshold>-1.6995859146118164e+00</stageThreshold>
      <weakClassifiers>
        <_>
          <internalNodes>
            0 -1 3 1.4704313129186630e-02</internalNodes>
          <leafValues>
            -4.7882410883903503e-01 4.0966922044754028e-01</leafValues></_>
        <_>
          <internalNodes>
            0 -1 197 -1.6938470304012299e-02</internalNodes>
          <leafValues>
            2.2381496429443359e-01 -4.9936106801033020e-01</leafValues></_>
        <_>
          <internalNodes>
            0 -1 97 1.9596729427576065e-02</internalNodes>
          <leafValues>
            -1.7126128077507019e-01 6.1942154169082642e-01</leafValues></_>
        <_>
          <internalNodes>
            0 -1 253 -7.8583601862192154e-03</internalNodes>
          <leafValues>
            -6.4566355943679810e-01 1.4330032467842102e-01</leafValues></_>
        <_>
          <internalNodes>
            0 -1 152 -6.0841208323836327e-03</internalNodes>
          <leafValues>
            1.8114160001277924e-01 -4.8764774203300476e-01</leafValues></_>
        <_>
          <internalNodes>
            0 -1 46 7.3912022635340691e-03</internalNodes>
          <leafValues>
            -1.6262117028236389e-01 4.8174214363098145e-01</leafValues></_>
        <_>
          <internalNodes>
            0 -1 182 4.7325631603598595e-03</internalNodes>
          <leafValues>
            1.2312608212232590e-01 -8.0796414613723755e-01</leafValues></_>
        <_>
          <internalNodes>
            0 -1 154 -3.7021161988377571e-03</internalNodes>
          <leafValues>
            3.7182176113128662e-01 -2.1257907152175903e-01</leafValues></_>
        <_>
          <internalNodes>
            0 -1 180 4.6062143519520760e-03</internalNodes>
          <leafValues>
            -1.1933460831642151e-01 5.5499255657196045e-01</leafValues></_>
        <_>
          <internalNodes>
            0 -1 71 -2.0449211820960045e-02</internalNodes>
          <leafValues>
            -7.7351540327072144e-01 9.9058739840984344e-02</leafValues></_>
        <_>
          <internalNodes>
            0 -1 44 -3.5188277252018452e-03</internalNodes>
          <leafValues>
            2.0223097503185272e-01 -3.6788499355316162e-01</leafValues></_>
        <_>
          <internalNodes>
            0 -1 207 -9.3913474120199680e-04</internalNodes>
          <leafValues>
            -5.6824404001235962e-01 1.1820725351572037e-01</leafValues></_>
        <_>
          <internalNodes>
            0 -1 254 1.0926125833066180e-04</internalNodes>
          <leafValues>
            1.5324383974075317e-01 -4.0935650467872620e-01</leafValues></_>
        <_>
          <internalNodes>
            0 -1 10 -6.8719806149601936e-03</internalNodes>
          <leafValues>
            3.7382811307907104e-01 -1.8000631034374237e-01</leafValues></_>
        <_>
          <internalNodes>
            0 -1 201 -3.9245542138814926e-03</internalNodes>
          <leafValues>
            -6.4680123329162598e-01 9.7097285091876984e-02</leafValues></_>
        <_>
          <internalNodes>
            0 -1 203 -2.8700269758701324e-03</internalNodes>
          <leafValues>
            3.1046447157859802e-01 -2.1498537063598633e-01</leafValues></_>
        <_>
          <internalNodes>
            0 -1 105 4.3636085465550423e-03</internalNodes>
          <leafValues>
            -5.2157014608383179e-01 1.2822370231151581e-01</leafValues></_>
        <_>
          <internalNodes>
            0 -1 49 5.9238862246274948e-02</internalNodes>
          <leafValues>
            9.7152881324291229e-02 -7.2129791975021362e-01</leafValues></_>
        <_>
          <internalNodes>
            0 -1 140 -2.6449110009707510e-04</internalNodes>
          <leafValues>
            2.0931051671504974e-01 -3.0371990799903870e-01</leafValues></_>
        <_>
          <internalNodes>
            0 -1 88 3.1315009109675884e-03</internalNodes>
          <leafValues>
            -2.3026067018508911e-01 3.0309370160102844e-01</leafValues></_>
        <_>
          <internalNodes>
            0 -1 17 -7.0672491565346718e-03</internalNodes>
          <leafValues>
            2.5685837864875793e-01 -2.8818196058273315e-01</leafValues></_></weakClassifiers></_>
    <!-- stage 8 -->
    <_>
      <maxWeakCount>21</maxWeakCount>
      <stageThreshold>-1.6469198465347290e+00</stageThreshold>
      <weakClassifiers>
        <_>
          <internalNodes>
            0 -1 191 3.9717629551887512e-02</internalNodes>
          <leafValues>
            -4.9740752577781677e-01 3.3804810047149658e-01</leafValues></_>
        <_>
          <internalNodes>
            0 -1 259 -1.2358662672340870e-02</internalNodes>
          <leafValues>
            4.5364388823509216e-01 -2.3102200031280518e-01</leafValues></_>
        <_>
          <internalNodes>
            0 -1 219 -5.0985789857804775e-03</internalNodes>
          <leafValues>
            1.1976014077663422e-01 -5.9574645757675171e-01</leafValues></_>
        <_>
          <internalNodes>
            0 -1 40 -1.6100661829113960e-02</internalNodes>
          <leafValues>
            4.1323259472846985e-01 -2.0788814127445221e-01</leafValues></_>
        <_>
          <internalNodes>
            0 -1 174 1.6555855050683022e-02</internalNodes>
          <leafValues>
            -2.2265134751796722e-01 3.6731320619583130e-01</leafValues></_>
        <_>
          <internalNodes>
            0 -1 150 -2.2257521748542786e-02</internalNodes>
          <leafValues>
            3.3467108011245728e-01 -2.7161872386932373e-01</leafValues></_>
        <_>
          <internalNodes>
            0 -1 187 1.8280823715031147e-03</internalNodes>
          <leafValues>
            6.6285476088523865e-02 -9.0856426954269409e-01</leafValues></_>
        <_>
          <internalNodes>
            0 -1 87 -1.0275523178279400e-02</internalNodes>
          <leafValues>
            5.2598381042480469e-01 -1.5421578288078308e-01</leafValues></_>
        <_>
          <internalNodes>
            0 -1 8 8.0035990104079247e-03</internalNodes>
          <leafValues>
            -1.2652857601642609e-01 5.0784468650817871e-01</leafValues></_>
        <_>
          <internalNodes>
            0 -1 91 1.0541719384491444e-03</internalNodes>
          <leafValues>
            -2.6133176684379578e-01 2.8615695238113403e-01</leafValues></_>
        <_>
          <internalNodes>
            0 -1 96 -1.2497439747676253e-03</internalNodes>
          <leafValues>
            1.5689548850059509e-01 -5.1264065504074097e-01</leafValues></_>
        <_>
          <internalNodes>
            0 -1 123 2.1863918751478195e-02</internalNodes>
          <leafValues>
            1.0157421231269836e-01 -6.5944880247116089e-01</leafValues></_>
        <_>
          <internalNodes>
            0 -1 111 8.7877846090123057e-04</internalNodes>
          <leafValues>
            1.1289544403553009e-01 -5.9737825393676758e-01</leafValues></_>
        <_>
          <internalNodes>
            0 -1 206 1.6967626288533211e-04</internalNodes>
          <leafValues>
            1.9675108790397644e-01 -3.4840384125709534e-01</leafValues></_>
        <_>
          <internalNodes>
            0 -1 165 -1.6331432852894068e-03</internalNodes>
          <leafValues>
            2.9928681254386902e-01 -2.2867965698242188e-01</leafValues></_>
        <_>
          <internalNodes>
            0 -1 45 -6.2350137159228325e-03</internalNodes>
          <leafValues>
            3.3766493201255798e-01 -1.8665575981140137e-01</leafValues></_>
        <_>
          <internalNodes>
            0 -1 141 -3.4106648527085781e-03</internalNodes>
          <leafValues>
            -8.5836344957351685e-01 7.7622346580028534e-02</leafValues></_>
        <_>
          <internalNodes>
            0 -1 163 -2.4973652325570583e-03</internalNodes>
          <leafValues>
            -8.1856203079223633e-01 5.7271007448434830e-02</leafValues></_>
        <_>
          <internalNodes>
            0 -1 164 6.8120229989290237e-03</internalNodes>
          <leafValues>
            6.8275809288024902e-02 -6.9645601511001587e-01</leafValues></_>
        <_>
          <internalNodes>
            0 -1 246 -6.6665711347013712e-04</internalNodes>
          <leafValues>
            -5.4000973701477051e-01 1.0171940177679062e-01</leafValues></_>
        <_>
          <internalNodes>
            0 -1 144 -6.1081405729055405e-03</internalNodes>
          <leafValues>
            3.9183464646339417e-01 -1.7837499082088470e-01</leafValues></_></weakClassifiers></_>
    <!-- stage 9 -->
    <_>
      <maxWeakCount>24</maxWeakCount>
      <stageThreshold>-1.6115863323211670e+00</stageThreshold>
      <weakClassifiers>
        <_>
          <internalNodes>
            0 -1 178 8.9449174702167511e-03</internalNodes>
          <leafValues>
            -5.1360416412353516e-01 1.9411122798919678e-01</leafValues></_>
        <_>
          <internalNodes>
            0 -1 24 3.7380149587988853e-03</internalNodes>
          <leafValues>
            -3.1107982993125916e-01 3.1688466668128967e-01</leafValues></_>
        <_>
          <internalNodes>
            0 -1 195 1.5174224972724915e-02</internalNodes>
          <leafValues>
            -2.2618433833122253e-01 4.3172752857208252e-01</leafValues></_>
        <_>
          <internalNodes>
            0 -1 118 -1.3664519414305687e-02</internalNodes>
          <leafValues>
            4.1791880130767822e-01 -1.7447131872177124e-01</leafValues></_>
        <_>
          <internalNodes>
            0 -1 176 -9.9667359609156847e-04</internalNodes>
          <leafValues>
            1.3161820173263550e-01 -5.4344028234481812e-01</leafValues></_>
        <_>
          <internalNodes>
            0 -1 210 2.8750039637088776e-03</internalNodes>
          <leafValues>
            -4.0952801704406738e-01 1.8728691339492798e-01</leafValues></_>
        <_>
          <internalNodes>
            0 -1 244 -1.3259699568152428e-02</internalNodes>
          <leafValues>
            -7.0219850540161133e-01 6.6391259431838989e-02</leafValues></_>
        <_>
          <internalNodes>
            0 -1 258 -2.1419391036033630e-02</internalNodes>
          <leafValues>
            3.6826387047767639e-01 -1.8730562925338745e-01</leafValues></_>
        <_>
          <internalNodes>
            0 -1 136 1.2141801416873932e-02</internalNodes>
          <leafValues>
            -1.2839178740978241e-01 5.3615939617156982e-01</leafValues></_>
        <_>
          <internalNodes>
            0 -1 102 -1.0621502995491028e-02</internalNodes>
          <leafValues>
            4.6806502342224121e-01 -1.3916304707527161e-01</leafValues></_>
        <_>
          <internalNodes>
            0 -1 0 -1.1330805718898773e-02</internalNodes>
          <leafValues>
            3.7503510713577271e-01 -1.6528746485710144e-01</leafValues></_>
        <_>
          <internalNodes>
            0 -1 231 -9.5126880332827568e-03</internalNodes>
          <leafValues>
            1.3117040693759918e-01 -4.7054004669189453e-01</leafValues></_>
        <_>
          <internalNodes>
            0 -1 243 -1.4225076884031296e-02</internalNodes>
          <leafValues>
            -7.8355407714843750e-01 7.1300871670246124e-02</leafValues></_>
        <_>
          <internalNodes>
            0 -1 113 3.2724512275308371e-03</internalNodes>
          <leafValues>
            9.3392193317413330e-02 -5.9532409906387329e-01</leafValues></_>
        <_>
          <internalNodes>
            0 -1 149 -1.5814835205674171e-02</internalNodes>
          <leafValues>
            -7.0554125308990479e-01 7.6914243400096893e-02</leafValues></_>
        <_>
          <internalNodes>
            0 -1 13 1.2358853593468666e-02</internalNodes>
          <leafValues>
            -1.6356463730335236e-01 4.0570434927940369e-01</leafValues></_>
        <_>
          <internalNodes>
            0 -1 60 4.7309666872024536e-02</internalNodes>
          <leafValues>
            -1.2963546812534332e-01 4.5713704824447632e-01</leafValues></_>
        <_>
          <internalNodes>
            0 -1 62 -6.9856317713856697e-04</internalNodes>
          <leafValues>
            2.2273433208465576e-01 -2.8456684947013855e-01</leafValues></_>
        <_>
          <internalNodes>
            0 -1 120 -2.1908108610659838e-03</internalNodes>
          <leafValues>
            1.2564261257648468e-01 -4.0860986709594727e-01</leafValues></_>
        <_>
          <internalNodes>
            0 -1 25 1.3628747314214706e-02</internalNodes>
          <leafValues>
            -1.2997464835643768e-01 4.3658795952796936e-01</leafValues></_>
        <_>
          <internalNodes>
            0 -1 249 2.8035929426550865e-02</internalNodes>
          <leafValues>
            -9.6899852156639099e-02 5.6893497705459595e-01</leafValues></_>
        <_>
          <internalNodes>
            0 -1 188 2.9920442029833794e-03</internalNodes>
          <leafValues>
            7.3753997683525085e-02 -9.0265041589736938e-01</leafValues></_>
        <_>
          <internalNodes>
            0 -1 180 5.2912561222910881e-03</internalNodes>
          <leafValues>
            -1.1808475852012634e-01 5.2165591716766357e-01</leafValues></_>
        <_>
          <internalNodes>
            0 -1 179 -2.9957778751850128e-03</internalNodes>
          <leafValues>
            3.0114799737930298e-01 -2.6689893007278442e-01</leafValues></_></weakClassifiers></_>
    <!-- stage 10 -->
    <_>
      <maxWeakCount>27</maxWeakCount>
      <stageThreshold>-1.6908299922943115e+00</stageThreshold>
      <weakClassifiers>
        <_>
          <internalNodes>
            0 -1 167 -2.3835429921746254e-02</internalNodes>
          <leafValues>
            4.1573032736778259e-01 -4.5121362805366516e-01</leafValues></_>
        <_>
          <internalNodes>
            0 -1 41 8.0651864409446716e-03</internalNodes>
          <leafValues>
            -5.8013200759887695e-01 1.4157584309577942e-01</leafValues></_>
        <_>
          <internalNodes>
            0 -1 225 -1.8095973064191639e-04</internalNodes>
          <leafValues>
            -4.8217830061912537e-01 1.7415389418601990e-01</leafValues></_>
        <_>
          <internalNodes>
            0 -1 166 -4.3233763426542282e-03</internalNodes>
          <leafValues>
            1.5240627527236938e-01 -5.1340669393539429e-01</leafValues></_>
        <_>
          <internalNodes>
            0 -1 29 8.1277154386043549e-03</internalNodes>
          <leafValues>
            -2.5820180773735046e-01 2.7765020728111267e-01</leafValues></_>
        <_>
          <internalNodes>
            0 -1 240 -4.2475387454032898e-02</internalNodes>
          <leafValues>
            4.6475490927696228e-01 -1.7378880083560944e-01</leafValues></_>
        <_>
          <internalNodes>
            0 -1 114 1.6794264316558838e-02</internalNodes>
          <leafValues>
            1.5326949954032898e-01 -6.2851476669311523e-01</leafValues></_>
        <_>
          <internalNodes>
            0 -1 116 9.2810817295685410e-04</internalNodes>
          <leafValues>
            -2.5113415718078613e-01 2.7431407570838928e-01</leafValues></_>
        <_>
          <internalNodes>
            0 -1 245 2.7386359870433807e-03</internalNodes>
          <leafValues>
            7.2218023240566254e-02 -8.1914502382278442e-01</leafValues></_>
        <_>
          <internalNodes>
            0 -1 222 -1.3566797133535147e-03</internalNodes>
          <leafValues>
            3.0054101347923279e-01 -2.0729680359363556e-01</leafValues></_>
        <_>
          <internalNodes>
            0 -1 238 -1.3423081487417221e-02</internalNodes>
          <leafValues>
            -6.4888256788253784e-01 9.9350258708000183e-02</leafValues></_>
        <_>
          <internalNodes>
            0 -1 70 4.2513511143624783e-03</internalNodes>
          <leafValues>
            -1.9187583029270172e-01 3.1531941890716553e-01</leafValues></_>
        <_>
          <internalNodes>
            0 -1 89 -4.7268740832805634e-02</internalNodes>
          <leafValues>
            -8.9568197727203369e-01 5.8185804635286331e-02</leafValues></_>
        <_>
          <internalNodes>
            0 -1 266 6.3404720276594162e-03</internalNodes>
          <leafValues>
            -1.3591210544109344e-01 4.4932174682617188e-01</leafValues></_>
        <_>
          <internalNodes>
            0 -1 162 -7.7142473310232162e-03</internalNodes>
          <leafValues>
            -6.3063639402389526e-01 9.9048383533954620e-02</leafValues></_>
        <_>
          <internalNodes>
            0 -1 85 -7.8640300780534744e-03</internalNodes>
          <leafValues>
            4.1389569640159607e-01 -1.4296552538871765e-01</leafValues></_>
        <_>
          <internalNodes>
            0 -1 209 -9.0412818826735020e-04</internalNodes>
          <leafValues>
            -5.4431903362274170e-01 1.0703208297491074e-01</leafValues></_>
        <_>
          <internalNodes>
            0 -1 175 2.8626865241676569e-03</internalNodes>
          <leafValues>
            1.1980228871107101e-01 -4.0718060731887817e-01</leafValues></_>
        <_>
          <internalNodes>
            0 -1 106 -1.0317774489521980e-02</internalNodes>
          <leafValues>
            5.1490831375122070e-01 -1.1151958256959915e-01</leafValues></_>
        <_>
          <internalNodes>
            0 -1 242 6.1736423522233963e-03</internalNodes>
          <leafValues>
            6.9789715111255646e-02 -7.8441429138183594e-01</leafValues></_>
        <_>
          <internalNodes>
            0 -1 80 -7.5903842225670815e-03</internalNodes>
          <leafValues>
            1.4286762475967407e-01 -3.5592457652091980e-01</leafValues></_>
        <_>
          <internalNodes>
            0 -1 119 -2.2480916231870651e-02</internalNodes>
          <leafValues>
            -6.5860992670059204e-01 8.0187775194644928e-02</leafValues></_>
        <_>
          <internalNodes>
            0 -1 125 -4.4304970651865005e-03</internalNodes>
          <leafValues>
            -6.2613064050674438e-01 8.3603426814079285e-02</leafValues></_>
        <_>
          <internalNodes>
            0 -1 251 2.7034531813114882e-03</internalNodes>
          <leafValues>
            -1.9440206885337830e-01 2.7307596802711487e-01</leafValues></_>
        <_>
          <internalNodes>
            0 -1 69 4.0537966415286064e-03</internalNodes>
          <leafValues>
            -2.2381587326526642e-01 2.4028205871582031e-01</leafValues></_>
        <_>
          <internalNodes>
            0 -1 159 -2.4800663813948631e-03</internalNodes>
          <leafValues>
            -8.1250733137130737e-01 6.8098872900009155e-02</leafValues></_>
        <_>
          <internalNodes>
            0 -1 95 5.8079091832041740e-03</internalNodes>
          <leafValues>
            -1.7595273256301880e-01 3.4819117188453674e-01</leafValues></_></weakClassifiers></_>
    <!-- stage 11 -->
    <_>
      <maxWeakCount>29</maxWeakCount>
      <stageThreshold>-1.5208002328872681e+00</stageThreshold>
      <weakClassifiers>
        <_>
          <internalNodes>
            0 -1 212 6.1738262884318829e-03</internalNodes>
          <leafValues>
            -5.1452922821044922e-01 1.2561334669589996e-01</leafValues></_>
        <_>
          <internalNodes>
            0 -1 5 1.2806621380150318e-02</internalNodes>
          <leafValues>
            -2.4102671444416046e-01 3.5251709818840027e-01</leafValues></_>
        <_>
          <internalNodes>
            0 -1 108 1.6158442944288254e-02</internalNodes>
          <leafValues>
            -3.8736879825592041e-01 1.7450961470603943e-01</leafValues></_>
        <_>
          <internalNodes>
            0 -1 245 -3.5632746294140816e-03</internalNodes>
          <leafValues>
            1.3437843322753906e-01 -4.4594573974609375e-01</leafValues></_>
        <_>
          <internalNodes>
            0 -1 134 1.3036882504820824e-02</internalNodes>
          <leafValues>
            -9.5492362976074219e-02 5.0273150205612183e-01</leafValues></_>
        <_>
          <internalNodes>
            0 -1 130 -1.9078038167208433e-03</internalNodes>
          <leafValues>
            2.3211954534053802e-01 -2.6030987501144409e-01</leafValues></_>
        <_>
          <internalNodes>
            0 -1 38 3.6086753010749817e-02</internalNodes>
          <leafValues>
            7.5283944606781006e-02 -7.4226909875869751e-01</leafValues></_>
        <_>
          <internalNodes>
            0 -1 37 1.7801752313971519e-02</internalNodes>
          <leafValues>
            -1.0301748663187027e-01 5.9590315818786621e-01</leafValues></_>
        <_>
          <internalNodes>
            0 -1 257 -5.7912571355700493e-03</internalNodes>
          <leafValues>
            -7.6456719636917114e-01 7.1567863225936890e-02</leafValues></_>
        <_>
          <internalNodes>
            0 -1 34 5.3955130279064178e-03</internalNodes>
          <leafValues>
            -1.2114515900611877e-01 5.0958180427551270e-01</leafValues></_>
        <_>
          <internalNodes>
            0 -1 145 -1.3799942098557949e-03</internalNodes>
          <leafValues>
            3.8643732666969299e-01 -1.4326357841491699e-01</leafValues></_>
        <_>
          <internalNodes>
            0 -1 157 -3.5500250756740570e-02</internalNodes>
          <leafValues>
            -8.9068073034286499e-01 7.9603299498558044e-02</leafValues></_>
        <_>
          <internalNodes>
            0 -1 177 5.6638857349753380e-03</internalNodes>
          <leafValues>
            -1.6294990479946136e-01 3.8933125138282776e-01</leafValues></_>
        <_>
          <internalNodes>
            0 -1 250 5.0322460010647774e-03</internalNodes>
          <leafValues>
            8.2598023116588593e-02 -6.9956010580062866e-01</leafValues></_>
        <_>
          <internalNodes>
            0 -1 155 3.2328150700777769e-04</internalNodes>
          <leafValues>
            -2.0243051648139954e-01 2.9518839716911316e-01</leafValues></_>
        <_>
          <internalNodes>
            0 -1 221 5.1358789205551147e-02</internalNodes>
          <leafValues>
            -1.1898700892925262e-01 5.3160727024078369e-01</leafValues></_>
        <_>
          <internalNodes>
            0 -1 193 -1.5104833291843534e-03</internalNodes>
          <leafValues>
            -4.5754474401473999e-01 1.3754169642925262e-01</leafValues></_>
        <_>
          <internalNodes>
            0 -1 170 2.1081045269966125e-03</internalNodes>
          <leafValues>
            -1.6982503235340118e-01 3.7257882952690125e-01</leafValues></_>
        <_>
          <internalNodes>
            0 -1 198 -1.0012606158852577e-02</internalNodes>
          <leafValues>
            -7.1155935525894165e-01 7.8511983156204224e-02</leafValues></_>
        <_>
          <internalNodes>
            0 -1 131 -1.6761897131800652e-02</internalNodes>
          <leafValues>
            -6.9045680761337280e-01 6.7588418722152710e-02</leafValues></_>
        <_>
          <internalNodes>
            0 -1 104 5.8494100812822580e-04</internalNodes>
          <leafValues>
            -2.4683585762977600e-01 2.3352564871311188e-01</leafValues></_>
        <_>
          <internalNodes>
            0 -1 16 -5.6811980903148651e-03</internalNodes>
          <leafValues>
            1.7295968532562256e-01 -3.0270639061927795e-01</leafValues></_>
        <_>
          <internalNodes>
            0 -1 229 1.1901100515387952e-04</internalNodes>
          <leafValues>
            1.7855462431907654e-01 -2.9798689484596252e-01</leafValues></_>
        <_>
          <internalNodes>
            0 -1 252 -5.7957852259278297e-03</internalNodes>
          <leafValues>
            -6.3609397411346436e-01 9.2117942869663239e-02</leafValues></_>
        <_>
          <internalNodes>
            0 -1 239 -8.5527142509818077e-03</internalNodes>
          <leafValues>
            2.2524312138557434e-01 -2.5140261650085449e-01</leafValues></_>
        <_>
          <internalNodes>
            0 -1 55 1.9410424865782261e-03</internalNodes>
          <leafValues>
            -2.2885756194591522e-01 2.4223807454109192e-01</leafValues></_>
        <_>
          <internalNodes>
            0 -1 137 -9.4513635849580169e-04</internalNodes>
          <leafValues>
            3.2978859543800354e-01 -1.6332584619522095e-01</leafValues></_>
        <_>
          <internalNodes>
            0 -1 117 -2.1976884454488754e-03</internalNodes>
          <leafValues>
            1.7947849631309509e-01 -2.9040068387985229e-01</leafValues></_>
        <_>
          <internalNodes>
            0 -1 74 -5.9122974053025246e-03</internalNodes>
          <leafValues>
            2.8737351298332214e-01 -2.0581139624118805e-01</leafValues></_></weakClassifiers></_>
    <!-- stage 12 -->
    <_>
      <maxWeakCount>29</maxWeakCount>
      <stageThreshold>-1.5135427713394165e+00</stageThreshold>
      <weakClassifiers>
        <_>
          <internalNodes>
            0 -1 205 2.2654088214039803e-02</internalNodes>
          <leafValues>
            -5.9767991304397583e-01 -3.9037276059389114e-02</leafValues></_>
        <_>
          <internalNodes>
            0 -1 115 1.1568150948733091e-03</internalNodes>
          <leafValues>
            -2.6062428951263428e-01 3.1288468837738037e-01</leafValues></_>
        <_>
          <internalNodes>
            0 -1 14 5.4054111242294312e-02</internalNodes>
          <leafValues>
            -1.6830395162105560e-01 3.8998481631278992e-01</leafValues></_>
        <_>
          <internalNodes>
            0 -1 156 -2.1366933360695839e-03</internalNodes>
          <leafValues>
            1.2426146864891052e-01 -5.1442527770996094e-01</leafValues></_>
        <_>
          <internalNodes>
            0 -1 66 -4.0174536406993866e-03</internalNodes>
          <leafValues>
            -3.5079938173294067e-01 2.1269927918910980e-01</leafValues></_>
        <_>
          <internalNodes>
            0 -1 77 -9.3505084514617920e-03</internalNodes>
          <leafValues>
            2.2296644747257233e-01 -2.6795634627342224e-01</leafValues></_>
        <_>
          <internalNodes>
            0 -1 9 2.7696188539266586e-02</internalNodes>
          <leafValues>
            -1.4678914844989777e-01 4.2476978898048401e-01</leafValues></_>
        <_>
          <internalNodes>
            0 -1 218 -7.4584060348570347e-03</internalNodes>
          <leafValues>
            1.1317366361618042e-01 -5.7823652029037476e-01</leafValues></_>
        <_>
          <internalNodes>
            0 -1 19 -2.7011341881006956e-03</internalNodes>
          <leafValues>
            3.1543460488319397e-01 -1.8535490334033966e-01</leafValues></_>
        <_>
          <internalNodes>
            0 -1 39 -3.6541048903018236e-03</internalNodes>
          <leafValues>
            3.0926811695098877e-01 -1.9814908504486084e-01</leafValues></_>
        <_>
          <internalNodes>
            0 -1 84 -3.7148278206586838e-02</internalNodes>
          <leafValues>
            -6.6480147838592529e-01 9.1723792254924774e-02</leafValues></_>
        <_>
          <internalNodes>
            0 -1 260 -9.7032700432464480e-04</internalNodes>
          <leafValues>
            -4.9326896667480469e-01 9.7364753484725952e-02</leafValues></_>
        <_>
          <internalNodes>
            0 -1 169 3.6101117730140686e-03</internalNodes>
          <leafValues>
            -5.4316627979278564e-01 9.2228293418884277e-02</leafValues></_>
        <_>
          <internalNodes>
            0 -1 143 1.5563651919364929e-02</internalNodes>
          <leafValues>
            9.5009565353393555e-02 -5.5384385585784912e-01</leafValues></_>
        <_>
          <internalNodes>
            0 -1 264 -9.9649112671613693e-03</internalNodes>
          <leafValues>
            4.5813387632369995e-01 -1.2278039753437042e-01</leafValues></_>
        <_>
          <internalNodes>
            0 -1 214 1.0345228947699070e-03</internalNodes>
          <leafValues>
            -2.0817653834819794e-01 2.7626115083694458e-01</leafValues></_>
        <_>
          <internalNodes>
            0 -1 244 -3.3854611683636904e-04</internalNodes>
          <leafValues>
            1.0260682553052902e-01 -5.1118409633636475e-01</leafValues></_>
        <_>
          <internalNodes>
            0 -1 121 2.0132284611463547e-02</internalNodes>
          <leafValues>
            -8.9958034455776215e-02 5.8777374029159546e-01</leafValues></_>
        <_>
          <internalNodes>
            0 -1 237 -1.5806974843144417e-02</internalNodes>
          <leafValues>
            -5.9022635221481323e-01 9.1423220932483673e-02</leafValues></_>
        <_>
          <internalNodes>
            0 -1 186 -5.0138412043452263e-03</internalNodes>
          <leafValues>
            -7.0521670579910278e-01 6.3558988273143768e-02</leafValues></_>
        <_>
          <internalNodes>
            0 -1 72 2.3566272109746933e-02</internalNodes>
          <leafValues>
            6.9042742252349854e-02 -6.2245821952819824e-01</leafValues></_>
        <_>
          <internalNodes>
            0 -1 168 1.6488223336637020e-03</internalNodes>
          <leafValues>
            -1.4935381710529327e-01 3.2289040088653564e-01</leafValues></_>
        <_>
          <internalNodes>
            0 -1 132 -4.5007258653640747e-02</internalNodes>
          <leafValues>
            -6.2339615821838379e-01 7.3783256113529205e-02</leafValues></_>
        <_>
          <internalNodes>
            0 -1 261 -2.8761224821209908e-03</internalNodes>
          <leafValues>
            -6.1760562658309937e-01 6.9707706570625305e-02</leafValues></_>
        <_>
          <internalNodes>
            0 -1 63 -3.1778565607964993e-03</internalNodes>
          <leafValues>
            -4.6263229846954346e-01 9.8838217556476593e-02</leafValues></_>
        <_>
          <internalNodes>
            0 -1 33 4.0615383535623550e-02</internalNodes>
          <leafValues>
            6.5254174172878265e-02 -7.0916938781738281e-01</leafValues></_>
        <_>
          <internalNodes>
            0 -1 32 1.1627012863755226e-02</internalNodes>
          <leafValues>
            1.0009370744228363e-01 -5.0049924850463867e-01</leafValues></_>
        <_>
          <internalNodes>
            0 -1 12 -4.2653791606426239e-03</internalNodes>
          <leafValues>
            3.4265506267547607e-01 -1.4325347542762756e-01</leafValues></_>
        <_>
          <internalNodes>
            0 -1 75 -8.7038781493902206e-03</internalNodes>
          <leafValues>
            3.8600155711174011e-01 -1.2112069129943848e-01</leafValues></_></weakClassifiers></_>
    <!-- stage 13 -->
    <_>
      <maxWeakCount>31</maxWeakCount>
      <stageThreshold>-1.5058794021606445e+00</stageThreshold>
      <weakClassifiers>
        <_>
          <internalNodes>
            0 -1 184 5.5177658796310425e-03</internalNodes>
          <leafValues>
            -5.0300210714340210e-01 9.6710845828056335e-02</leafValues></_>
        <_>
          <internalNodes>
            0 -1 124 4.3673615902662277e-02</internalNodes>
          <leafValues>
            -3.8676190376281738e-01 1.8480448424816132e-01</leafValues></_>
        <_>
          <internalNodes>
            0 -1 56 9.6351262181997299e-03</internalNodes>
          <leafValues>
            -4.3483698368072510e-01 1.4849178493022919e-01</leafValues></_>
        <_>
          <internalNodes>
            0 -1 51 4.4465460814535618e-03</internalNodes>
          <leafValues>
            -1.2746390700340271e-01 4.5123496651649475e-01</leafValues></_>
        <_>
          <internalNodes>
            0 -1 230 -4.6879379078745842e-03</internalNodes>
          <leafValues>
            1.3201875984668732e-01 -3.8495796918869019e-01</leafValues></_>
        <_>
          <internalNodes>
            0 -1 35 3.3805548446252942e-04</internalNodes>
          <leafValues>
            -2.7522253990173340e-01 2.1715416014194489e-01</leafValues></_>
        <_>
          <internalNodes>
            0 -1 224 1.0090008378028870e-01</internalNodes>
          <leafValues>
            -8.4075778722763062e-02 7.1357387304306030e-01</leafValues></_>
        <_>
          <internalNodes>
            0 -1 93 1.3995734974741936e-02</internalNodes>
          <leafValues>
            -9.6771240234375000e-02 5.0480365753173828e-01</leafValues></_>
        <_>
          <internalNodes>
            0 -1 208 -9.7219701856374741e-03</internalNodes>
          <leafValues>
            2.5798219442367554e-01 -1.9639331102371216e-01</leafValues></_>
        <_>
          <internalNodes>
            0 -1 59 1.0649224743247032e-02</internalNodes>
          <leafValues>
            -9.3433141708374023e-02 5.3424930572509766e-01</leafValues></_>
        <_>
          <internalNodes>
            0 -1 58 -5.2841976284980774e-02</internalNodes>
          <leafValues>
            5.3809624910354614e-01 -9.9427103996276855e-02</leafValues></_>
        <_>
          <internalNodes>
            0 -1 50 -9.4915311783552170e-03</internalNodes>
          <leafValues>
            3.4749799966812134e-01 -1.4110432565212250e-01</leafValues></_>
        <_>
          <internalNodes>
            0 -1 15 -4.9561280757188797e-03</internalNodes>
          <leafValues>
            2.2030197083950043e-01 -2.2618751227855682e-01</leafValues></_>
        <_>
          <internalNodes>
            0 -1 67 -1.3005577027797699e-02</internalNodes>
          <leafValues>
            4.9333542585372925e-01 -1.0246417671442032e-01</leafValues></_>
        <_>
          <internalNodes>
            0 -1 232 -6.0212183743715286e-03</internalNodes>
          <leafValues>
            9.4039708375930786e-02 -5.2126204967498779e-01</leafValues></_>
        <_>
          <internalNodes>
            0 -1 6 3.9271336048841476e-02</internalNodes>
          <leafValues>
            -1.3545618951320648e-01 4.0492168068885803e-01</leafValues></_>
        <_>
          <internalNodes>
            0 -1 26 8.4173940122127533e-02</internalNodes>
          <leafValues>
            6.1506953090429306e-02 -7.4775230884552002e-01</leafValues></_>
        <_>
          <internalNodes>
            0 -1 20 -5.8196345344185829e-03</internalNodes>
          <leafValues>
            4.1875010728836060e-01 -1.2986345589160919e-01</leafValues></_>
        <_>
          <internalNodes>
            0 -1 110 -9.6364254131913185e-03</internalNodes>
          <leafValues>
            5.3304749727249146e-01 -7.8277811408042908e-02</leafValues></_>
        <_>
          <internalNodes>
            0 -1 264 5.1264679059386253e-03</internalNodes>
          <leafValues>
            -9.4869799911975861e-02 4.7393444180488586e-01</leafValues></_>
        <_>
          <internalNodes>
            0 -1 267 -6.4545921050012112e-03</internalNodes>
          <leafValues>
            3.4033554792404175e-01 -1.5528351068496704e-01</leafValues></_>
        <_>
          <internalNodes>
            0 -1 21 -1.3321167789399624e-03</internalNodes>
          <leafValues>
            2.2313550114631653e-01 -2.1836192905902863e-01</leafValues></_>
        <_>
          <internalNodes>
            0 -1 127 -7.8212264925241470e-03</internalNodes>
          <leafValues>
            -8.4722954034805298e-01 6.6543988883495331e-02</leafValues></_>
        <_>
          <internalNodes>
            0 -1 142 -4.6407054178416729e-03</internalNodes>
          <leafValues>
            -7.6448559761047363e-01 4.4718619436025620e-02</leafValues></_>
        <_>
          <internalNodes>
            0 -1 180 4.8806052654981613e-03</internalNodes>
          <leafValues>
            -1.0744784027338028e-01 4.4992107152938843e-01</leafValues></_>
        <_>
          <internalNodes>
            0 -1 122 6.9815706228837371e-04</internalNodes>
          <leafValues>
            -1.8773463368415833e-01 2.9266658425331116e-01</leafValues></_>
        <_>
          <internalNodes>
            0 -1 192 -5.1569205243140459e-04</internalNodes>
          <leafValues>
            -3.3931705355644226e-01 1.5171045064926147e-01</leafValues></_>
        <_>
          <internalNodes>
            0 -1 126 -3.4782260656356812e-02</internalNodes>
          <leafValues>
            -7.6361215114593506e-01 5.5231641978025436e-02</leafValues></_>
        <_>
          <internalNodes>
            0 -1 151 -8.4609799087047577e-03</internalNodes>
          <leafValues>
            2.4830286204814911e-01 -2.1574541926383972e-01</leafValues></_>
        <_>
          <internalNodes>
            0 -1 171 -1.3803534209728241e-02</internalNodes>
          <leafValues>
            3.9181226491928101e-01 -1.3807448744773865e-01</leafValues></_>
        <_>
          <internalNodes>
            0 -1 189 7.5422772206366062e-03</internalNodes>
          <leafValues>
            5.5419676005840302e-02 -9.0021032094955444e-01</leafValues></_></weakClassifiers></_>
    <!-- stage 14 -->
    <_>
      <maxWeakCount>31</maxWeakCount>
      <stageThreshold>-1.5698907375335693e+00</stageThreshold>
      <weakClassifiers>
        <_>
          <internalNodes>
            0 -1 147 -3.2451994717121124e-02</internalNodes>
          <leafValues>
            4.1104295849800110e-01 -4.2834767699241638e-01</leafValues></_>
        <_>
          <internalNodes>
            0 -1 228 -8.2587287761271000e-04</internalNodes>
          <leafValues>
            -5.8165919780731201e-01 1.1599480360746384e-01</leafValues></_>
        <_>
          <internalNodes>
            0 -1 90 -3.5909526050090790e-03</internalNodes>
          <leafValues>
            3.7616834044456482e-01 -1.8463006615638733e-01</leafValues></_>
        <_>
          <internalNodes>
            0 -1 202 -7.2278594598174095e-03</internalNodes>
          <leafValues>
            1.7987260222434998e-01 -3.3824509382247925e-01</leafValues></_>
        <_>
          <internalNodes>
            0 -1 76 5.8681808412075043e-02</internalNodes>
          <leafValues>
            -1.4767138659954071e-01 3.8069593906402588e-01</leafValues></_>
        <_>
          <internalNodes>
            0 -1 153 -5.5675758048892021e-03</internalNodes>
          <leafValues>
            -7.2742784023284912e-01 1.1323170363903046e-01</leafValues></_>
        <_>
          <internalNodes>
            0 -1 30 -1.0944413952529430e-02</internalNodes>
          <leafValues>
            4.2600145936012268e-01 -1.3447806239128113e-01</leafValues></_>
        <_>
          <internalNodes>
            0 -1 57 -9.5765088917687535e-04</internalNodes>
          <leafValues>
            1.3618102669715881e-01 -3.8500854372978210e-01</leafValues></_>
        <_>
          <internalNodes>
            0 -1 236 8.4776412695646286e-03</internalNodes>
          <leafValues>
            8.0884061753749847e-02 -6.5309405326843262e-01</leafValues></_>
        <_>
          <internalNodes>
            0 -1 213 2.2231168113648891e-03</internalNodes>
          <leafValues>
            -1.8184512853622437e-01 2.9459980130195618e-01</leafValues></_>
        <_>
          <internalNodes>
            0 -1 223 3.4197530476376414e-04</internalNodes>
          <leafValues>
            -2.0872516930103302e-01 2.3445831239223480e-01</leafValues></_>
        <_>
          <internalNodes>
            0 -1 86 -7.8633781522512436e-03</internalNodes>
          <leafValues>
            3.7615194916725159e-01 -1.3576519489288330e-01</leafValues></_>
        <_>
          <internalNodes>
            0 -1 48 5.4374034516513348e-04</internalNodes>
          <leafValues>
            -4.0435886383056641e-01 1.1848320066928864e-01</leafValues></_>
        <_>
          <internalNodes>
            0 -1 27 -1.7890226095914841e-02</internalNodes>
          <leafValues>
            -3.5668802261352539e-01 1.3522432744503021e-01</leafValues></_>
        <_>
          <internalNodes>
            0 -1 268 4.2654047720134258e-03</internalNodes>
          <leafValues>
            -1.0787648707628250e-01 4.4095137715339661e-01</leafValues></_>
        <_>
          <internalNodes>
            0 -1 266 -5.5824276059865952e-03</internalNodes>
          <leafValues>
            3.4248435497283936e-01 -1.5657135844230652e-01</leafValues></_>
        <_>
          <internalNodes>
            0 -1 92 2.0062856376171112e-02</internalNodes>
          <leafValues>
            8.2107029855251312e-02 -5.5026227235794067e-01</leafValues></_>
        <_>
          <internalNodes>
            0 -1 234 -1.9844669848680496e-02</internalNodes>
          <leafValues>
            -5.9247130155563354e-01 7.7702946960926056e-02</leafValues></_>
        <_>
          <internalNodes>
            0 -1 199 5.9786015190184116e-03</internalNodes>
          <leafValues>
            5.0502121448516846e-02 -8.0062580108642578e-01</leafValues></_>
        <_>
          <internalNodes>
            0 -1 128 -5.7074485812336206e-04</internalNodes>
          <leafValues>
            2.3002502322196960e-01 -2.0633758604526520e-01</leafValues></_>
        <_>
          <internalNodes>
            0 -1 129 2.8378395363688469e-03</internalNodes>
          <leafValues>
            -1.6040624678134918e-01 3.0103605985641479e-01</leafValues></_>
        <_>
          <internalNodes>
            0 -1 31 8.7240355787798762e-04</internalNodes>
          <leafValues>
            -2.0724654197692871e-01 2.1974299848079681e-01</leafValues></_>
        <_>
          <internalNodes>
            0 -1 135 -3.8894144818186760e-03</internalNodes>
          <leafValues>
            3.2267466187477112e-01 -1.5229605138301849e-01</leafValues></_>
        <_>
          <internalNodes>
            0 -1 68 5.0876298919320107e-03</internalNodes>
          <leafValues>
            -1.4755678176879883e-01 3.2625398039817810e-01</leafValues></_>
        <_>
          <internalNodes>
            0 -1 52 1.8230356276035309e-02</internalNodes>
          <leafValues>
            -1.5509137511253357e-01 2.9460057616233826e-01</leafValues></_>
        <_>
          <internalNodes>
            0 -1 82 2.1801065653562546e-02</internalNodes>
          <leafValues>
            1.0038200020790100e-01 -5.1426935195922852e-01</leafValues></_>
        <_>
          <internalNodes>
            0 -1 79 -1.1857239529490471e-02</internalNodes>
          <leafValues>
            -5.2650803327560425e-01 8.3791598677635193e-02</leafValues></_>
        <_>
          <internalNodes>
            0 -1 107 -2.3129759356379509e-03</internalNodes>
          <leafValues>
            -4.9262821674346924e-01 8.9691005647182465e-02</leafValues></_>
        <_>
          <internalNodes>
            0 -1 260 -3.6554841790348291e-04</internalNodes>
          <leafValues>
            -3.8861519098281860e-01 1.3149194419384003e-01</leafValues></_>
        <_>
          <internalNodes>
            0 -1 194 5.6307064369320869e-03</internalNodes>
          <leafValues>
            8.3884380757808685e-02 -5.8413213491439819e-01</leafValues></_>
        <_>
          <internalNodes>
            0 -1 140 -3.4310482442378998e-04</internalNodes>
          <leafValues>
            1.7278979718685150e-01 -2.6718613505363464e-01</leafValues></_></weakClassifiers></_></stages>
  <features>
    <_>
      <rects>
        <_>
          0 3 2 14 -1.</_>
        <_>
          0 3 1 7 2.</_>
        <_>
          1 10 1 7 2.</_></rects>
      <tilted>0</tilted></_>
    <_>
      <rects>
        <_>
          0 4 2 11 -1.</_>
        <_>
          1 4 1 11 2.</_></rects>
      <tilted>0</tilted></_>
    <_>
      <rects>
        <_>
          0 4 4 9 -1.</_>
        <_>
          2 4 2 9 2.</_></rects>
      <tilted>0</tilted></_>
    <_>
      <rects>
        <_>
          0 5 2 5 -1.</_>
        <_>
          1 5 1 5 2.</_></rects>
      <tilted>0</tilted></_>
    <_>
      <rects>
        <_>
          0 5 2 10 -1.</_>
        <_>
          0 5 1 5 2.</_>
        <_>
          1 10 1 5 2.</_></rects>
      <tilted>0</tilted></_>
    <_>
      <rects>
        <_>
          0 5 2 12 -1.</_>
        <_>
          1 5 1 12 2.</_></rects>
      <tilted>0</tilted></_>
    <_>
      <rects>
        <_>
          0 6 4 9 -1.</_>
        <_>
          2 6 2 9 2.</_></rects>
      <tilted>0</tilted></_>
    <_>
      <rects>
        <_>
          0 6 4 11 -1.</_>
        <_>
          2 6 2 11 2.</_></rects>
      <tilted>0</tilted></_>
    <_>
      <rects>
        <_>
          0 7 3 2 -1.</_>
        <_>
          1 7 1 2 3.</_></rects>
      <tilted>0</tilted></_>
    <_>
      <rects>
        <_>
          0 8 4 6 -1.</_>
        <_>
          2 8 2 6 2.</_></rects>
      <tilted>0</tilted></_>
    <_>
      <rects>
        <_>
          0 9 3 3 -1.</_>
        <_>
          1 9 1 3 3.</_></rects>
      <tilted>0</tilted></_>
    <_>
      <rects>
        <_>
          0 10 3 2 -1.</_>
        <_>
          1 10 1 2 3.</_></rects>
      <tilted>0</tilted></_>
    <_>
      <rects>
        <_>
          0 10 2 4 -1.</_>
        <_>
          1 10 1 4 2.</_></rects>
      <tilted>0</tilted></_>
    <_>
      <rects>
        <_>
          0 18 15 2 -1.</_>
        <_>
          0 19 15 1 2.</_></rects>
      <tilted>0</tilted></_>
    <_>
      <rects>
        <_>
          1 0 19 4 -1.</_>
        <_>
          1 2 19 2 2.</_></rects>
      <tilted>0</tilted></_>
    <_>
      <rects>
        <_>
          1 5 4 4 -1.</_>
        <_>
          3 5 2 4 2.</_></rects>
      <tilted>0</tilted></_>
    <_>
      <rects>
        <_>
          1 5 6 7 -1.</_>
        <_>
          4 5 3 7 2.</_></rects>
      <tilted>0</tilted></_>
    <_>
      <rects>
        <_>
          1 6 4 5 -1.</_>
        <_>
          3 6 2 5 2.</_></rects>
      <tilted>0</tilted></_>
    <_>
      <rects>
        <_>
          1 7 2 1 -1.</_>
        <_>
          2 7 1 1 2.</_></rects>
      <tilted>0</tilted></_>
    <_>
      <rects>
        <_>
          1 8 3 1 -1.</_>
        <_>
          2 8 1 1 3.</_></rects>
      <tilted>0</tilted></_>
    <_>
      <rects>
        <_>
          1 8 3 2 -1.</_>
        <_>
          2 8 1 2 3.</_></rects>
      <tilted>0</tilted></_>
    <_>
      <rects>
        <_>
          1 9 2 4 -1.</_>
        <_>
          1 9 1 2 2.</_>
        <_>
          2 11 1 2 2.</_></rects>
      <tilted>0</tilted></_>
    <_>
      <rects>
        <_>
          1 9 2 3 -1.</_>
        <_>
          2 9 1 3 2.</_></rects>
      <tilted>0</tilted></_>
    <_>
      <rects>
        <_>
          1 9 2 6 -1.</_>
        <_>
          1 12 2 3 2.</_></rects>
      <tilted>0</tilted></_>
    <_>
      <rects>
        <_>
          1 10 3 1 -1.</_>
        <_>
          2 10 1 1 3.</_></rects>
      <tilted>0</tilted></_>
    <_>
      <rects>
        <_>
          1 10 4 4 -1.</_>
        <_>
          1 10 2 2 2.</_>
        <_>
          3 12 2 2 2.</_></rects>
      <tilted>0</tilted></_>
    <_>
      <rects>
        <_>
          1 10 18 3 -1.</_>
        <_>
          7 10 6 3 3.</_></rects>
      <tilted>0</tilted></_>
    <_>
      <rects>
        <_>
          2 4 6 9 -1.</_>
        <_>
          2 7 6 3 3.</_></rects>
      <tilted>0</tilted></_>
    <_>
      <rects>
        <_>
          2 5 15 12 -1.</_>
        <_>
          2 9 15 4 3.</_></rects>
      <tilted>0</tilted></_>
    <_>
      <rects>
        <_>
          2 6 1 9 -1.</_>
        <_>
          2 9 1 3 3.</_></rects>
      <tilted>0</tilted></_>
    <_>
      <rects>
        <_>
          2 6 2 8 -1.</_>
        <_>
          2 6 1 4 2.</_>
        <_>
          3 10 1 4 2.</_></rects>
      <tilted>0</tilted></_>
    <_>
      <rects>
        <_>
          2 6 4 2 -1.</_>
        <_>
          2 6 2 1 2.</_>
        <_>
          4 7 2 1 2.</_></rects>
      <tilted>0</tilted></_>
    <_>
      <rects>
        <_>
          2 6 9 5 -1.</_>
        <_>
          5 6 3 5 3.</_></rects>
      <tilted>0</tilted></_>
    <_>
      <rects>
        <_>
          2 6 7 6 -1.</_>
        <_>
          2 9 7 3 2.</_></rects>
      <tilted>0</tilted></_>
    <_>
      <rects>
        <_>
          2 7 2 2 -1.</_>
        <_>
          3 7 1 2 2.</_></rects>
      <tilted>0</tilted></_>
    <_>
      <rects>
        <_>
          2 7 1 4 -1.</_>
        <_>
          2 9 1 2 2.</_></rects>
      <tilted>0</tilted></_>
    <_>
      <rects>
        <_>
          2 7 2 4 -1.</_>
        <_>
          2 7 1 2 2.</_>
        <_>
          3 9 1 2 2.</_></rects>
      <tilted>0</tilted></_>
    <_>
      <rects>
        <_>
          2 7 2 8 -1.</_>
        <_>
          2 7 1 4 2.</_>
        <_>
          3 11 1 4 2.</_></rects>
      <tilted>0</tilted></_>
    <_>
      <rects>
        <_>
          2 7 6 6 -1.</_>
        <_>
          2 10 6 3 2.</_></rects>
      <tilted>0</tilted></_>
    <_>
      <rects>
        <_>
          2 9 2 2 -1.</_>
        <_>
          3 9 1 2 2.</_></rects>
      <tilted>0</tilted></_>
    <_>
      <rects>
        <_>
          2 9 1 10 -1.</_>
        <_>
          2 14 1 5 2.</_></rects>
      <tilted>0</tilted></_>
    <_>
      <rects>
        <_>
          2 9 15 4 -1.</_>
        <_>
          7 9 5 4 3.</_></rects>
      <tilted>0</tilted></_>
    <_>
      <rects>
        <_>
          2 11 4 4 -1.</_>
        <_>
          2 11 2 2 2.</_>
        <_>
          4 13 2 2 2.</_></rects>
      <tilted>0</tilted></_>
    <_>
      <rects>
        <_>
          2 11 15 4 -1.</_>
        <_>
          7 11 5 4 3.</_></rects>
      <tilted>0</tilted></_>
    <_>
      <rects>
        <_>
          2 12 4 4 -1.</_>
        <_>
          2 14 4 2 2.</_></rects>
      <tilted>0</tilted></_>
    <_>
      <rects>
        <_>
          2 13 4 4 -1.</_>
        <_>
          2 13 2 2 2.</_>
        <_>
          4 15 2 2 2.</_></rects>
      <tilted>0</tilted></_>
    <_>
      <rects>
        <_>
          3 2 8 2 -1.</_>
        <_>
          3 2 4 1 2.</_>
        <_>
          7 3 4 1 2.</_></rects>
      <tilted>0</tilted></_>
    <_>
      <rects>
        <_>
          3 3 1 12 -1.</_>
        <_>
          3 7 1 4 3.</_></rects>
      <tilted>0</tilted></_>
    <_>
      <rects>
        <_>
          3 5 8 6 -1.</_>
        <_>
          3 5 4 3 2.</_>
        <_>
          7 8 4 3 2.</_></rects>
      <tilted>0</tilted></_>
    <_>
      <rects>
        <_>
          3 6 7 9 -1.</_>
        <_>
          3 9 7 3 3.</_></rects>
      <tilted>0</tilted></_>
    <_>
      <rects>
        <_>
          3 7 1 8 -1.</_>
        <_>
          3 11 1 4 2.</_></rects>
      <tilted>0</tilted></_>
    <_>
      <rects>
        <_>
          3 9 1 4 -1.</_>
        <_>
          3 11 1 2 2.</_></rects>
      <tilted>0</tilted></_>
    <_>
      <rects>
        <_>
          3 9 2 9 -1.</_>
        <_>
          3 12 2 3 3.</_></rects>
      <tilted>0</tilted></_>
    <_>
      <rects>
        <_>
          3 9 3 9 -1.</_>
        <_>
          3 12 3 3 3.</_></rects>
      <tilted>0</tilted></_>
    <_>
      <rects>
        <_>
          3 9 12 8 -1.</_>
        <_>
          7 9 4 8 3.</_></rects>
      <tilted>0</tilted></_>
    <_>
      <rects>
        <_>
          3 10 2 5 -1.</_>
        <_>
          4 10 1 5 2.</_></rects>
      <tilted>0</tilted></_>
    <_>
      <rects>
        <_>
          3 10 12 7 -1.</_>
        <_>
          7 10 4 7 3.</_></rects>
      <tilted>0</tilted></_>
    <_>
      <rects>
        <_>
          3 12 2 4 -1.</_>
        <_>
          3 14 2 2 2.</_></rects>
      <tilted>0</tilted></_>
    <_>
      <rects>
        <_>
          3 16 16 4 -1.</_>
        <_>
          3 18 16 2 2.</_></rects>
      <tilted>0</tilted></_>
    <_>
      <rects>
        <_>
          4 0 4 2 -1.</_>
        <_>
          4 1 4 1 2.</_></rects>
      <tilted>0</tilted></_>
    <_>
      <rects>
        <_>
          4 0 12 4 -1.</_>
        <_>
          4 2 12 2 2.</_></rects>
      <tilted>0</tilted></_>
    <_>
      <rects>
        <_>
          4 2 10 4 -1.</_>
        <_>
          4 4 10 2 2.</_></rects>
      <tilted>0</tilted></_>
    <_>
      <rects>
        <_>
          4 3 2 11 -1.</_>
        <_>
          5 3 1 11 2.</_></rects>
      <tilted>0</tilted></_>
    <_>
      <rects>
        <_>
          4 5 12 12 -1.</_>
        <_>
          4 9 12 4 3.</_></rects>
      <tilted>0</tilted></_>
    <_>
      <rects>
        <_>
          4 6 8 12 -1.</_>
        <_>
          4 6 4 6 2.</_>
        <_>
          8 12 4 6 2.</_></rects>
      <tilted>0</tilted></_>
    <_>
      <rects>
        <_>
          4 6 14 10 -1.</_>
        <_>
          4 6 7 5 2.</_>
        <_>
          11 11 7 5 2.</_></rects>
      <tilted>0</tilted></_>
    <_>
      <rects>
        <_>
          4 7 11 12 -1.</_>
        <_>
          4 11 11 4 3.</_></rects>
      <tilted>0</tilted></_>
    <_>
      <rects>
        <_>
          4 8 6 3 -1.</_>
        <_>
          4 9 6 1 3.</_></rects>
      <tilted>0</tilted></_>
    <_>
      <rects>
        <_>
          4 9 4 3 -1.</_>
        <_>
          4 10 4 1 3.</_></rects>
      <tilted>0</tilted></_>
    <_>
      <rects>
        <_>
          4 10 1 6 -1.</_>
        <_>
          4 12 1 2 3.</_></rects>
      <tilted>0</tilted></_>
    <_>
      <rects>
        <_>
          4 10 4 3 -1.</_>
        <_>
          4 11 4 1 3.</_></rects>
      <tilted>0</tilted></_>
    <_>
      <rects>
        <_>
          4 10 14 1 -1.</_>
        <_>
          11 10 7 1 2.</_></rects>
      <tilted>0</tilted></_>
    <_>
      <rects>
        <_>
          4 12 6 4 -1.</_>
        <_>
          7 12 3 4 2.</_></rects>
      <tilted>0</tilted></_>
    <_>
      <rects>
        <_>
          4 13 2 4 -1.</_>
        <_>
          4 15 2 2 2.</_></rects>
      <tilted>0</tilted></_>
    <_>
      <rects>
        <_>
          4 15 12 3 -1.</_>
        <_>
          4 16 12 1 3.</_></rects>
      <tilted>0</tilted></_>
    <_>
      <rects>
        <_>
          4 18 11 2 -1.</_>
        <_>
          4 19 11 1 2.</_></rects>
      <tilted>0</tilted></_>
    <_>
      <rects>
        <_>
          5 0 8 6 -1.</_>
        <_>
          5 2 8 2 3.</_></rects>
      <tilted>0</tilted></_>
    <_>
      <rects>
        <_>
          5 1 3 4 -1.</_>
        <_>
          5 3 3 2 2.</_></rects>
      <tilted>0</tilted></_>
    <_>
      <rects>
        <_>
          5 2 1 4 -1.</_>
        <_>
          5 4 1 2 2.</_></rects>
      <tilted>0</tilted></_>
    <_>
      <rects>
        <_>
          5 2 4 6 -1.</_>
        <_>
          5 2 2 3 2.</_>
        <_>
          7 5 2 3 2.</_></rects>
      <tilted>0</tilted></_>
    <_>
      <rects>
        <_>
          5 2 6 4 -1.</_>
        <_>
          5 4 6 2 2.</_></rects>
      <tilted>0</tilted></_>
    <_>
      <rects>
        <_>
          5 4 2 1 -1.</_>
        <_>
          6 4 1 1 2.</_></rects>
      <tilted>0</tilted></_>
    <_>
      <rects>
        <_>
          5 4 2 12 -1.</_>
        <_>
          5 10 2 6 2.</_></rects>
      <tilted>0</tilted></_>
    <_>
      <rects>
        <_>
          5 4 8 15 -1.</_>
        <_>
          5 9 8 5 3.</_></rects>
      <tilted>0</tilted></_>
    <_>
      <rects>
        <_>
          5 6 6 12 -1.</_>
        <_>
          5 6 3 6 2.</_>
        <_>
          8 12 3 6 2.</_></rects>
      <tilted>0</tilted></_>
    <_>
      <rects>
        <_>
          5 7 4 3 -1.</_>
        <_>
          5 8 4 1 3.</_></rects>
      <tilted>0</tilted></_>
    <_>
      <rects>
        <_>
          5 7 6 3 -1.</_>
        <_>
          5 8 6 1 3.</_></rects>
      <tilted>0</tilted></_>
    <_>
      <rects>
        <_>
          5 8 5 3 -1.</_>
        <_>
          5 9 5 1 3.</_></rects>
      <tilted>0</tilted></_>
    <_>
      <rects>
        <_>
          5 9 4 3 -1.</_>
        <_>
          5 10 4 1 3.</_></rects>
      <tilted>0</tilted></_>
    <_>
      <rects>
        <_>
          5 10 14 2 -1.</_>
        <_>
          12 10 7 2 2.</_></rects>
      <tilted>0</tilted></_>
    <_>
      <rects>
        <_>
          5 12 4 2 -1.</_>
        <_>
          5 12 2 1 2.</_>
        <_>
          7 13 2 1 2.</_></rects>
      <tilted>0</tilted></_>
    <_>
      <rects>
        <_>
          5 14 2 2 -1.</_>
        <_>
          6 14 1 2 2.</_></rects>
      <tilted>0</tilted></_>
    <_>
      <rects>
        <_>
          5 14 6 4 -1.</_>
        <_>
          8 14 3 4 2.</_></rects>
      <tilted>0</tilted></_>
    <_>
      <rects>
        <_>
          5 18 8 2 -1.</_>
        <_>
          5 19 8 1 2.</_></rects>
      <tilted>0</tilted></_>
    <_>
      <rects>
        <_>
          6 1 2 4 -1.</_>
        <_>
          6 3 2 2 2.</_></rects>
      <tilted>0</tilted></_>
    <_>
      <rects>
        <_>
          6 1 6 2 -1.</_>
        <_>
          6 1 3 1 2.</_>
        <_>
          9 2 3 1 2.</_></rects>
      <tilted>0</tilted></_>
    <_>
      <rects>
        <_>
          6 1 4 9 -1.</_>
        <_>
          6 4 4 3 3.</_></rects>
      <tilted>0</tilted></_>
    <_>
      <rects>
        <_>
          6 1 5 3 -1.</_>
        <_>
          6 2 5 1 3.</_></rects>
      <tilted>0</tilted></_>
    <_>
      <rects>
        <_>
          6 1 5 9 -1.</_>
        <_>
          6 4 5 3 3.</_></rects>
      <tilted>0</tilted></_>
    <_>
      <rects>
        <_>
          6 1 6 2 -1.</_>
        <_>
          6 2 6 1 2.</_></rects>
      <tilted>0</tilted></_>
    <_>
      <rects>
        <_>
          6 1 9 2 -1.</_>
        <_>
          6 2 9 1 2.</_></rects>
      <tilted>0</tilted></_>
    <_>
      <rects>
        <_>
          6 2 2 2 -1.</_>
        <_>
          6 3 2 1 2.</_></rects>
      <tilted>0</tilted></_>
    <_>
      <rects>
        <_>
          6 2 5 3 -1.</_>
        <_>
          6 3 5 1 3.</_></rects>
      <tilted>0</tilted></_>
    <_>
      <rects>
        <_>
          6 3 2 3 -1.</_>
        <_>
          6 4 2 1 3.</_></rects>
      <tilted>0</tilted></_>
    <_>
      <rects>
        <_>
          6 5 1 2 -1.</_>
        <_>
          6 6 1 1 2.</_></rects>
      <tilted>0</tilted></_>
    <_>
      <rects>
        <_>
          6 5 6 9 -1.</_>
        <_>
          6 8 6 3 3.</_></rects>
      <tilted>0</tilted></_>
    <_>
      <rects>
        <_>
          6 8 3 3 -1.</_>
        <_>
          6 9 3 1 3.</_></rects>
      <tilted>0</tilted></_>
    <_>
      <rects>
        <_>
          6 8 6 3 -1.</_>
        <_>
          9 8 3 3 2.</_></rects>
      <tilted>0</tilted></_>
    <_>
      <rects>
        <_>
          6 8 9 3 -1.</_>
        <_>
          9 8 3 3 3.</_></rects>
      <tilted>0</tilted></_>
    <_>
      <rects>
        <_>
          6 8 6 4 -1.</_>
        <_>
          9 8 3 4 2.</_></rects>
      <tilted>0</tilted></_>
    <_>
      <rects>
        <_>
          6 9 3 3 -1.</_>
        <_>
          6 10 3 1 3.</_></rects>
      <tilted>0</tilted></_>
    <_>
      <rects>
        <_>
          6 9 5 8 -1.</_>
        <_>
          6 13 5 4 2.</_></rects>
      <tilted>0</tilted></_>
    <_>
      <rects>
        <_>
          6 10 8 8 -1.</_>
        <_>
          6 14 8 4 2.</_></rects>
      <tilted>0</tilted></_>
    <_>
      <rects>
        <_>
          6 10 9 8 -1.</_>
        <_>
          6 14 9 4 2.</_></rects>
      <tilted>0</tilted></_>
    <_>
      <rects>
        <_>
          6 11 12 2 -1.</_>
        <_>
          10 11 4 2 3.</_></rects>
      <tilted>0</tilted></_>
    <_>
      <rects>
        <_>
          6 12 2 1 -1.</_>
        <_>
          7 12 1 1 2.</_></rects>
      <tilted>0</tilted></_>
    <_>
      <rects>
        <_>
          6 13 1 3 -1.</_>
        <_>
          6 14 1 1 3.</_></rects>
      <tilted>0</tilted></_>
    <_>
      <rects>
        <_>
          6 15 5 4 -1.</_>
        <_>
          6 17 5 2 2.</_></rects>
      <tilted>0</tilted></_>
    <_>
      <rects>
        <_>
          6 16 5 4 -1.</_>
        <_>
          6 18 5 2 2.</_></rects>
      <tilted>0</tilted></_>
    <_>
      <rects>
        <_>
          7 1 1 12 -1.</_>
        <_>
          7 5 1 4 3.</_></rects>
      <tilted>0</tilted></_>
    <_>
      <rects>
        <_>
          7 1 2 9 -1.</_>
        <_>
          7 4 2 3 3.</_></rects>
      <tilted>0</tilted></_>
    <_>
      <rects>
        <_>
          7 2 4 3 -1.</_>
        <_>
          7 3 4 1 3.</_></rects>
      <tilted>0</tilted></_>
    <_>
      <rects>
        <_>
          7 4 1 2 -1.</_>
        <_>
          7 5 1 1 2.</_></rects>
      <tilted>0</tilted></_>
    <_>
      <rects>
        <_>
          7 5 2 9 -1.</_>
        <_>
          7 8 2 3 3.</_></rects>
      <tilted>0</tilted></_>
    <_>
      <rects>
        <_>
          7 5 8 12 -1.</_>
        <_>
          7 9 8 4 3.</_></rects>
      <tilted>0</tilted></_>
    <_>
      <rects>
        <_>
          7 6 1 6 -1.</_>
        <_>
          7 9 1 3 2.</_></rects>
      <tilted>0</tilted></_>
    <_>
      <rects>
        <_>
          7 9 8 4 -1.</_>
        <_>
          7 11 8 2 2.</_></rects>
      <tilted>0</tilted></_>
    <_>
      <rects>
        <_>
          7 10 3 3 -1.</_>
        <_>
          8 10 1 3 3.</_></rects>
      <tilted>0</tilted></_>
    <_>
      <rects>
        <_>
          7 11 2 1 -1.</_>
        <_>
          8 11 1 1 2.</_></rects>
      <tilted>0</tilted></_>
    <_>
      <rects>
        <_>
          7 11 1 6 -1.</_>
        <_>
          7 13 1 2 3.</_></rects>
      <tilted>0</tilted></_>
    <_>
      <rects>
        <_>
          7 11 4 1 -1.</_>
        <_>
          9 11 2 1 2.</_></rects>
      <tilted>0</tilted></_>
    <_>
      <rects>
        <_>
          7 12 12 1 -1.</_>
        <_>
          11 12 4 1 3.</_></rects>
      <tilted>0</tilted></_>
    <_>
      <rects>
        <_>
          7 12 7 6 -1.</_>
        <_>
          7 15 7 3 2.</_></rects>
      <tilted>0</tilted></_>
    <_>
      <rects>
        <_>
          7 18 5 2 -1.</_>
        <_>
          7 19 5 1 2.</_></rects>
      <tilted>0</tilted></_>
    <_>
      <rects>
        <_>
          8 1 3 3 -1.</_>
        <_>
          8 2 3 1 3.</_></rects>
      <tilted>0</tilted></_>
    <_>
      <rects>
        <_>
          8 2 2 3 -1.</_>
        <_>
          8 3 2 1 3.</_></rects>
      <tilted>0</tilted></_>
    <_>
      <rects>
        <_>
          8 2 3 3 -1.</_>
        <_>
          8 3 3 1 3.</_></rects>
      <tilted>0</tilted></_>
    <_>
      <rects>
        <_>
          8 8 2 2 -1.</_>
        <_>
          8 8 1 1 2.</_>
        <_>
          9 9 1 1 2.</_></rects>
      <tilted>0</tilted></_>
    <_>
      <rects>
        <_>
          8 8 4 7 -1.</_>
        <_>
          10 8 2 7 2.</_></rects>
      <tilted>0</tilted></_>
    <_>
      <rects>
        <_>
          8 10 6 4 -1.</_>
        <_>
          8 12 6 2 2.</_></rects>
      <tilted>0</tilted></_>
    <_>
      <rects>
        <_>
          8 11 2 1 -1.</_>
        <_>
          9 11 1 1 2.</_></rects>
      <tilted>0</tilted></_>
    <_>
      <rects>
        <_>
          8 11 3 1 -1.</_>
        <_>
          9 11 1 1 3.</_></rects>
      <tilted>0</tilted></_>
    <_>
      <rects>
        <_>
          8 11 3 2 -1.</_>
        <_>
          9 11 1 2 3.</_></rects>
      <tilted>0</tilted></_>
    <_>
      <rects>
        <_>
          8 11 9 4 -1.</_>
        <_>
          11 11 3 4 3.</_></rects>
      <tilted>0</tilted></_>
    <_>
      <rects>
        <_>
          9 0 3 3 -1.</_>
        <_>
          9 1 3 1 3.</_></rects>
      <tilted>0</tilted></_>
    <_>
      <rects>
        <_>
          9 1 1 3 -1.</_>
        <_>
          9 2 1 1 3.</_></rects>
      <tilted>0</tilted></_>
    <_>
      <rects>
        <_>
          9 1 4 2 -1.</_>
        <_>
          9 2 4 1 2.</_></rects>
      <tilted>0</tilted></_>
    <_>
      <rects>
        <_>
          9 3 8 4 -1.</_>
        <_>
          9 3 4 2 2.</_>
        <_>
          13 5 4 2 2.</_></rects>
      <tilted>0</tilted></_>
    <_>
      <rects>
        <_>
          9 5 8 6 -1.</_>
        <_>
          9 5 4 3 2.</_>
        <_>
          13 8 4 3 2.</_></rects>
      <tilted>0</tilted></_>
    <_>
      <rects>
        <_>
          9 7 1 10 -1.</_>
        <_>
          9 12 1 5 2.</_></rects>
      <tilted>0</tilted></_>
    <_>
      <rects>
        <_>
          9 7 10 4 -1.</_>
        <_>
          9 7 5 2 2.</_>
        <_>
          14 9 5 2 2.</_></rects>
      <tilted>0</tilted></_>
    <_>
      <rects>
        <_>
          9 8 3 4 -1.</_>
        <_>
          9 10 3 2 2.</_></rects>
      <tilted>0</tilted></_>
    <_>
      <rects>
        <_>
          9 8 6 3 -1.</_>
        <_>
          12 8 3 3 2.</_></rects>
      <tilted>0</tilted></_>
    <_>
      <rects>
        <_>
          9 9 3 4 -1.</_>
        <_>
          10 9 1 4 3.</_></rects>
      <tilted>0</tilted></_>
    <_>
      <rects>
        <_>
          9 9 3 3 -1.</_>
        <_>
          9 10 3 1 3.</_></rects>
      <tilted>0</tilted></_>
    <_>
      <rects>
        <_>
          9 9 9 2 -1.</_>
        <_>
          12 9 3 2 3.</_></rects>
      <tilted>0</tilted></_>
    <_>
      <rects>
        <_>
          9 9 4 4 -1.</_>
        <_>
          9 11 4 2 2.</_></rects>
      <tilted>0</tilted></_>
    <_>
      <rects>
        <_>
          9 9 4 6 -1.</_>
        <_>
          9 11 4 2 3.</_></rects>
      <tilted>0</tilted></_>
    <_>
      <rects>
        <_>
          9 10 2 4 -1.</_>
        <_>
          10 10 1 4 2.</_></rects>
      <tilted>0</tilted></_>
    <_>
      <rects>
        <_>
          9 11 2 1 -1.</_>
        <_>
          10 11 1 1 2.</_></rects>
      <tilted>0</tilted></_>
    <_>
      <rects>
        <_>
          9 11 4 2 -1.</_>
        <_>
          9 12 4 1 2.</_></rects>
      <tilted>0</tilted></_>
    <_>
      <rects>
        <_>
          9 11 10 2 -1.</_>
        <_>
          14 11 5 2 2.</_></rects>
      <tilted>0</tilted></_>
    <_>
      <rects>
        <_>
          9 11 8 2 -1.</_>
        <_>
          9 12 8 1 2.</_></rects>
      <tilted>0</tilted></_>
    <_>
      <rects>
        <_>
          9 12 2 1 -1.</_>
        <_>
          10 12 1 1 2.</_></rects>
      <tilted>0</tilted></_>
    <_>
      <rects>
        <_>
          9 12 6 2 -1.</_>
        <_>
          12 12 3 2 2.</_></rects>
      <tilted>0</tilted></_>
    <_>
      <rects>
        <_>
          9 17 2 3 -1.</_>
        <_>
          9 18 2 1 3.</_></rects>
      <tilted>0</tilted></_>
    <_>
      <rects>
        <_>
          10 2 2 9 -1.</_>
        <_>
          10 5 2 3 3.</_></rects>
      <tilted>0</tilted></_>
    <_>
      <rects>
        <_>
          10 3 6 4 -1.</_>
        <_>
          10 3 3 2 2.</_>
        <_>
          13 5 3 2 2.</_></rects>
      <tilted>0</tilted></_>
    <_>
      <rects>
        <_>
          10 4 1 3 -1.</_>
        <_>
          10 5 1 1 3.</_></rects>
      <tilted>0</tilted></_>
    <_>
      <rects>
        <_>
          10 5 1 9 -1.</_>
        <_>
          10 8 1 3 3.</_></rects>
      <tilted>0</tilted></_>
    <_>
      <rects>
        <_>
          10 5 4 2 -1.</_>
        <_>
          10 5 2 1 2.</_>
        <_>
          12 6 2 1 2.</_></rects>
      <tilted>0</tilted></_>
    <_>
      <rects>
        <_>
          10 5 2 6 -1.</_>
        <_>
          10 7 2 2 3.</_></rects>
      <tilted>0</tilted></_>
    <_>
      <rects>
        <_>
          10 5 2 9 -1.</_>
        <_>
          10 8 2 3 3.</_></rects>
      <tilted>0</tilted></_>
    <_>
      <rects>
        <_>
          10 5 6 12 -1.</_>
        <_>
          10 9 6 4 3.</_></rects>
      <tilted>0</tilted></_>
    <_>
      <rects>
        <_>
          10 6 2 6 -1.</_>
        <_>
          10 8 2 2 3.</_></rects>
      <tilted>0</tilted></_>
    <_>
      <rects>
        <_>
          10 6 6 10 -1.</_>
        <_>
          13 6 3 10 2.</_></rects>
      <tilted>0</tilted></_>
    <_>
      <rects>
        <_>
          10 8 1 6 -1.</_>
        <_>
          10 11 1 3 2.</_></rects>
      <tilted>0</tilted></_>
    <_>
      <rects>
        <_>
          10 8 2 2 -1.</_>
        <_>
          10 9 2 1 2.</_></rects>
      <tilted>0</tilted></_>
    <_>
      <rects>
        <_>
          10 8 2 3 -1.</_>
        <_>
          10 9 2 1 3.</_></rects>
      <tilted>0</tilted></_>
    <_>
      <rects>
        <_>
          10 8 2 6 -1.</_>
        <_>
          10 10 2 2 3.</_></rects>
      <tilted>0</tilted></_>
    <_>
      <rects>
        <_>
          10 9 1 3 -1.</_>
        <_>
          10 10 1 1 3.</_></rects>
      <tilted>0</tilted></_>
    <_>
      <rects>
        <_>
          10 9 1 4 -1.</_>
        <_>
          10 11 1 2 2.</_></rects>
      <tilted>0</tilted></_>
    <_>
      <rects>
        <_>
          10 9 2 5 -1.</_>
        <_>
          11 9 1 5 2.</_></rects>
      <tilted>0</tilted></_>
    <_>
      <rects>
        <_>
          10 9 2 2 -1.</_>
        <_>
          10 10 2 1 2.</_></rects>
      <tilted>0</tilted></_>
    <_>
      <rects>
        <_>
          10 9 4 2 -1.</_>
        <_>
          10 9 2 1 2.</_>
        <_>
          12 10 2 1 2.</_></rects>
      <tilted>0</tilted></_>
    <_>
      <rects>
        <_>
          10 9 2 4 -1.</_>
        <_>
          10 11 2 2 2.</_></rects>
      <tilted>0</tilted></_>
    <_>
      <rects>
        <_>
          10 10 2 3 -1.</_>
        <_>
          11 10 1 3 2.</_></rects>
      <tilted>0</tilted></_>
    <_>
      <rects>
        <_>
          10 11 1 2 -1.</_>
        <_>
          10 12 1 1 2.</_></rects>
      <tilted>0</tilted></_>
    <_>
      <rects>
        <_>
          10 11 2 2 -1.</_>
        <_>
          10 12 2 1 2.</_></rects>
      <tilted>0</tilted></_>
    <_>
      <rects>
        <_>
          10 11 3 3 -1.</_>
        <_>
          10 12 3 1 3.</_></rects>
      <tilted>0</tilted></_>
    <_>
      <rects>
        <_>
          10 11 8 1 -1.</_>
        <_>
          14 11 4 1 2.</_></rects>
      <tilted>0</tilted></_>
    <_>
      <rects>
        <_>
          11 0 7 4 -1.</_>
        <_>
          11 2 7 2 2.</_></rects>
      <tilted>0</tilted></_>
    <_>
      <rects>
        <_>
          11 2 3 1 -1.</_>
        <_>
          12 2 1 1 3.</_></rects>
      <tilted>0</tilted></_>
    <_>
      <rects>
        <_>
          11 2 2 3 -1.</_>
        <_>
          12 2 1 3 2.</_></rects>
      <tilted>0</tilted></_>
    <_>
      <rects>
        <_>
          11 2 3 3 -1.</_>
        <_>
          12 2 1 3 3.</_></rects>
      <tilted>0</tilted></_>
    <_>
      <rects>
        <_>
          11 4 9 1 -1.</_>
        <_>
          14 4 3 1 3.</_></rects>
      <tilted>0</tilted></_>
    <_>
      <rects>
        <_>
          11 5 6 6 -1.</_>
        <_>
          11 5 3 3 2.</_>
        <_>
          14 8 3 3 2.</_></rects>
      <tilted>0</tilted></_>
    <_>
      <rects>
        <_>
          11 6 8 6 -1.</_>
        <_>
          11 6 4 3 2.</_>
        <_>
          15 9 4 3 2.</_></rects>
      <tilted>0</tilted></_>
    <_>
      <rects>
        <_>
          11 11 8 1 -1.</_>
        <_>
          15 11 4 1 2.</_></rects>
      <tilted>0</tilted></_>
    <_>
      <rects>
        <_>
          11 12 6 1 -1.</_>
        <_>
          14 12 3 1 2.</_></rects>
      <tilted>0</tilted></_>
    <_>
      <rects>
        <_>
          12 0 2 2 -1.</_>
        <_>
          12 1 2 1 2.</_></rects>
      <tilted>0</tilted></_>
    <_>
      <rects>
        <_>
          12 2 3 2 -1.</_>
        <_>
          13 2 1 2 3.</_></rects>
      <tilted>0</tilted></_>
    <_>
      <rects>
        <_>
          12 8 6 3 -1.</_>
        <_>
          14 8 2 3 3.</_></rects>
      <tilted>0</tilted></_>
    <_>
      <rects>
        <_>
          12 15 4 3 -1.</_>
        <_>
          12 16 4 1 3.</_></rects>
      <tilted>0</tilted></_>
    <_>
      <rects>
        <_>
          13 1 6 8 -1.</_>
        <_>
          13 1 3 4 2.</_>
        <_>
          16 5 3 4 2.</_></rects>
      <tilted>0</tilted></_>
    <_>
      <rects>
        <_>
          13 2 6 6 -1.</_>
        <_>
          13 2 3 3 2.</_>
        <_>
          16 5 3 3 2.</_></rects>
      <tilted>0</tilted></_>
    <_>
      <rects>
        <_>
          13 3 2 1 -1.</_>
        <_>
          14 3 1 1 2.</_></rects>
      <tilted>0</tilted></_>
    <_>
      <rects>
        <_>
          13 3 3 2 -1.</_>
        <_>
          14 3 1 2 3.</_></rects>
      <tilted>0</tilted></_>
    <_>
      <rects>
        <_>
          13 3 2 4 -1.</_>
        <_>
          13 5 2 2 2.</_></rects>
      <tilted>0</tilted></_>
    <_>
      <rects>
        <_>
          13 4 3 1 -1.</_>
        <_>
          14 4 1 1 3.</_></rects>
      <tilted>0</tilted></_>
    <_>
      <rects>
        <_>
          13 5 4 4 -1.</_>
        <_>
          15 5 2 4 2.</_></rects>
      <tilted>0</tilted></_>
    <_>
      <rects>
        <_>
          13 5 4 8 -1.</_>
        <_>
          13 5 2 4 2.</_>
        <_>
          15 9 2 4 2.</_></rects>
      <tilted>0</tilted></_>
    <_>
      <rects>
        <_>
          13 8 1 6 -1.</_>
        <_>
          13 10 1 2 3.</_></rects>
      <tilted>0</tilted></_>
    <_>
      <rects>
        <_>
          13 11 3 2 -1.</_>
        <_>
          14 11 1 2 3.</_></rects>
      <tilted>0</tilted></_>
    <_>
      <rects>
        <_>
          13 17 3 2 -1.</_>
        <_>
          13 18 3 1 2.</_></rects>
      <tilted>0</tilted></_>
    <_>
      <rects>
        <_>
          14 1 1 6 -1.</_>
        <_>
          14 3 1 2 3.</_></rects>
      <tilted>0</tilted></_>
    <_>
      <rects>
        <_>
          14 3 1 6 -1.</_>
        <_>
          14 6 1 3 2.</_></rects>
      <tilted>0</tilted></_>
    <_>
      <rects>
        <_>
          14 3 1 10 -1.</_>
        <_>
          14 8 1 5 2.</_></rects>
      <tilted>0</tilted></_>
    <_>
      <rects>
        <_>
          14 3 2 10 -1.</_>
        <_>
          14 8 2 5 2.</_></rects>
      <tilted>0</tilted></_>
    <_>
      <rects>
        <_>
          14 4 2 6 -1.</_>
        <_>
          14 7 2 3 2.</_></rects>
      <tilted>0</tilted></_>
    <_>
      <rects>
        <_>
          14 6 4 4 -1.</_>
        <_>
          16 6 2 4 2.</_></rects>
      <tilted>0</tilted></_>
    <_>
      <rects>
        <_>
          14 7 6 7 -1.</_>
        <_>
          16 7 2 7 3.</_></rects>
      <tilted>0</tilted></_>
    <_>
      <rects>
        <_>
          14 11 2 2 -1.</_>
        <_>
          15 11 1 2 2.</_></rects>
      <tilted>0</tilted></_>
    <_>
      <rects>
        <_>
          14 17 1 2 -1.</_>
        <_>
          14 18 1 1 2.</_></rects>
      <tilted>0</tilted></_>
    <_>
      <rects>
        <_>
          15 2 4 12 -1.</_>
        <_>
          15 6 4 4 3.</_></rects>
      <tilted>0</tilted></_>
    <_>
      <rects>
        <_>
          15 3 1 2 -1.</_>
        <_>
          15 4 1 1 2.</_></rects>
      <tilted>0</tilted></_>
    <_>
      <rects>
        <_>
          15 4 1 3 -1.</_>
        <_>
          15 5 1 1 3.</_></rects>
      <tilted>0</tilted></_>
    <_>
      <rects>
        <_>
          15 4 1 10 -1.</_>
        <_>
          15 9 1 5 2.</_></rects>
      <tilted>0</tilted></_>
    <_>
      <rects>
        <_>
          15 4 2 3 -1.</_>
        <_>
          15 5 2 1 3.</_></rects>
      <tilted>0</tilted></_>
    <_>
      <rects>
        <_>
          15 5 2 1 -1.</_>
        <_>
          16 5 1 1 2.</_></rects>
      <tilted>0</tilted></_>
    <_>
      <rects>
        <_>
          15 5 2 9 -1.</_>
        <_>
          15 8 2 3 3.</_></rects>
      <tilted>0</tilted></_>
    <_>
      <rects>
        <_>
          15 5 2 8 -1.</_>
        <_>
          15 9 2 4 2.</_></rects>
      <tilted>0</tilted></_>
    <_>
      <rects>
        <_>
          15 5 2 10 -1.</_>
        <_>
          15 10 2 5 2.</_></rects>
      <tilted>0</tilted></_>
    <_>
      <rects>
        <_>
          15 6 3 8 -1.</_>
        <_>
          15 10 3 4 2.</_></rects>
      <tilted>0</tilted></_>
    <_>
      <rects>
        <_>
          15 7 2 8 -1.</_>
        <_>
          15 11 2 4 2.</_></rects>
      <tilted>0</tilted></_>
    <_>
      <rects>
        <_>
          15 7 4 8 -1.</_>
        <_>
          15 7 2 4 2.</_>
        <_>
          17 11 2 4 2.</_></rects>
      <tilted>0</tilted></_>
    <_>
      <rects>
        <_>
          15 8 1 8 -1.</_>
        <_>
          15 12 1 4 2.</_></rects>
      <tilted>0</tilted></_>
    <_>
      <rects>
        <_>
          15 8 3 6 -1.</_>
        <_>
          15 10 3 2 3.</_></rects>
      <tilted>0</tilted></_>
    <_>
      <rects>
        <_>
          15 9 3 6 -1.</_>
        <_>
          15 11 3 2 3.</_></rects>
      <tilted>0</tilted></_>
    <_>
      <rects>
        <_>
          16 3 1 8 -1.</_>
        <_>
          16 7 1 4 2.</_></rects>
      <tilted>0</tilted></_>
    <_>
      <rects>
        <_>
          16 4 4 11 -1.</_>
        <_>
          18 4 2 11 2.</_></rects>
      <tilted>0</tilted></_>
    <_>
      <rects>
        <_>
          16 6 1 8 -1.</_>
        <_>
          16 10 1 4 2.</_></rects>
      <tilted>0</tilted></_>
    <_>
      <rects>
        <_>
          16 6 2 3 -1.</_>
        <_>
          16 7 2 1 3.</_></rects>
      <tilted>0</tilted></_>
    <_>
      <rects>
        <_>
          16 7 1 8 -1.</_>
        <_>
          16 11 1 4 2.</_></rects>
      <tilted>0</tilted></_>
    <_>
      <rects>
        <_>
          16 7 2 4 -1.</_>
        <_>
          16 9 2 2 2.</_></rects>
      <tilted>0</tilted></_>
    <_>
      <rects>
        <_>
          16 7 2 6 -1.</_>
        <_>
          16 10 2 3 2.</_></rects>
      <tilted>0</tilted></_>
    <_>
      <rects>
        <_>
          16 8 2 2 -1.</_>
        <_>
          17 8 1 2 2.</_></rects>
      <tilted>0</tilted></_>
    <_>
      <rects>
        <_>
          16 8 1 6 -1.</_>
        <_>
          16 11 1 3 2.</_></rects>
      <tilted>0</tilted></_>
    <_>
      <rects>
        <_>
          16 8 2 4 -1.</_>
        <_>
          17 8 1 4 2.</_></rects>
      <tilted>0</tilted></_>
    <_>
      <rects>
        <_>
          16 8 4 12 -1.</_>
        <_>
          16 8 2 6 2.</_>
        <_>
          18 14 2 6 2.</_></rects>
      <tilted>0</tilted></_>
    <_>
      <rects>
        <_>
          16 10 3 3 -1.</_>
        <_>
          16 11 3 1 3.</_></rects>
      <tilted>0</tilted></_>
    <_>
      <rects>
        <_>
          17 7 3 2 -1.</_>
        <_>
          18 7 1 2 3.</_></rects>
      <tilted>0</tilted></_>
    <_>
      <rects>
        <_>
          17 7 1 6 -1.</_>
        <_>
          17 9 1 2 3.</_></rects>
      <tilted>0</tilted></_>
    <_>
      <rects>
        <_>
          17 7 2 6 -1.</_>
        <_>
          17 9 2 2 3.</_></rects>
      <tilted>0</tilted></_>
    <_>
      <rects>
        <_>
          17 8 1 2 -1.</_>
        <_>
          17 9 1 1 2.</_></rects>
      <tilted>0</tilted></_>
    <_>
      <rects>
        <_>
          17 10 1 2 -1.</_>
        <_>
          17 11 1 1 2.</_></rects>
      <tilted>0</tilted></_>
    <_>
      <rects>
        <_>
          17 10 3 2 -1.</_>
        <_>
          18 10 1 2 3.</_></rects>
      <tilted>0</tilted></_>
    <_>
      <rects>
        <_>
          17 10 2 3 -1.</_>
        <_>
          17 11 2 1 3.</_></rects>
      <tilted>0</tilted></_>
    <_>
      <rects>
        <_>
          18 4 1 12 -1.</_>
        <_>
          18 10 1 6 2.</_></rects>
      <tilted>0</tilted></_>
    <_>
      <rects>
        <_>
          18 4 2 8 -1.</_>
        <_>
          19 4 1 8 2.</_></rects>
      <tilted>0</tilted></_>
    <_>
      <rects>
        <_>
          18 6 1 3 -1.</_>
        <_>
          18 7 1 1 3.</_></rects>
      <tilted>0</tilted></_>
    <_>
      <rects>
        <_>
          18 7 1 3 -1.</_>
        <_>
          18 8 1 1 3.</_></rects>
      <tilted>0</tilted></_>
    <_>
      <rects>
        <_>
          18 7 2 3 -1.</_>
        <_>
          19 7 1 3 2.</_></rects>
      <tilted>0</tilted></_>
    <_>
      <rects>
        <_>
          18 7 2 5 -1.</_>
        <_>
          19 7 1 5 2.</_></rects>
      <tilted>0</tilted></_>
    <_>
      <rects>
        <_>
          18 8 2 3 -1.</_>
        <_>
          19 8 1 3 2.</_></rects>
      <tilted>0</tilted></_>
    <_>
      <rects>
        <_>
          18 8 2 5 -1.</_>
        <_>
          19 8 1 5 2.</_></rects>
      <tilted>0</tilted></_>
    <_>
      <rects>
        <_>
          18 9 2 3 -1.</_>
        <_>
          19 9 1 3 2.</_></rects>
      <tilted>0</tilted></_>
    <_>
      <rects>
        <_>
          18 9 2 5 -1.</_>
        <_>
          19 9 1 5 2.</_></rects>
      <tilted>0</tilted></_>
    <_>
      <rects>
        <_>
          18 10 2 2 -1.</_>
        <_>
          19 10 1 2 2.</_></rects>
      <tilted>0</tilted></_></features></cascade>
</opencv_storage>
