<?xml version="1.0"?>
<opencv_storage>
<cascade>
  <stageType>BOOST</stageType>
  <featureType>LBP</featureType>
  <height>30</height>
  <width>24</width>
  <stageParams>
    <boostType>GAB</boostType>
    <minHitRate>9.9900001287460327e-01</minHitRate>
    <maxFalseAlarm>5.0000000000000000e-01</maxFalseAlarm>
    <weightTrimRate>9.4999999999999996e-01</weightTrimRate>
    <maxDepth>1</maxDepth>
    <maxWeakCount>100</maxWeakCount></stageParams>
  <featureParams>
    <maxCatCount>256</maxCatCount>
    <featSize>1</featSize></featureParams>
  <stageNum>13</stageNum>
  <stages>
    <!-- stage 0 -->
    <_>
      <maxWeakCount>5</maxWeakCount>
      <stageThreshold>-8.7705886363983154e-01</stageThreshold>
      <weakClassifiers>
        <_>
          <internalNodes>
            0 -1 20 -823996673 -799497 -269094913 -67907849 -282931201
            -561165 -13410305 -9220749</internalNodes>
          <leafValues>
            -6.7881458997726440e-01 8.7341243028640747e-01</leafValues></_>
        <_>
          <internalNodes>
            0 -1 48 -33687588 -539110636 -234758785 -11265 -1113850881
            -3161975 709275371 872410111</internalNodes>
          <leafValues>
            -8.1186467409133911e-01 7.7573114633560181e-01</leafValues></_>
        <_>
          <internalNodes>
            0 -1 35 1579155359 454791455 -636379618 -6303717 -65676072
            2081210399 -1195579144 -101721382</internalNodes>
          <leafValues>
            -6.8549036979675293e-01 7.0496636629104614e-01</leafValues></_>
        <_>
          <internalNodes>
            0 -1 12 -487653377 -135348288 -469794825 -68944000 58557695
            -68159657 662657023 -34969</internalNodes>
          <leafValues>
            -6.5877115726470947e-01 6.9518703222274780e-01</leafValues></_>
        <_>
          <internalNodes>
            0 -1 77 277943577 -38141953 -774253057 -2721 -51754241
            -89134165 -34620481 -125253351</internalNodes>
          <leafValues>
            -7.2277277708053589e-01 6.0392367839813232e-01</leafValues></_></weakClassifiers></_>
    <!-- stage 1 -->
    <_>
      <maxWeakCount>5</maxWeakCount>
      <stageThreshold>-1.1262619495391846e+00</stageThreshold>
      <weakClassifiers>
        <_>
          <internalNodes>
            0 -1 16 -306 -4900 -34209793 -9 -1 -268451841 863240191
            2004353023</internalNodes>
          <leafValues>
            -7.3243504762649536e-01 7.7020299434661865e-01</leafValues></_>
        <_>
          <internalNodes>
            0 -1 21 -292892929 -2438829 -518663269 -686632525 -361345854
            -71312253 -343707137 -546089705</internalNodes>
          <leafValues>
            -7.9484194517135620e-01 5.7211905717849731e-01</leafValues></_>
        <_>
          <internalNodes>
            0 -1 55 -551813889 1058526983 437457437 1057982991
            -133370632 -1475823457 -793773860 -69211905</internalNodes>
          <leafValues>
            -6.6475814580917358e-01 6.7160981893539429e-01</leafValues></_>
        <_>
          <internalNodes>
            0 -1 61 292650367 -1175331747 -1877894145 1880152375
            -365098994 -75790279 -1700819523 -64041080</internalNodes>
          <leafValues>
            -7.4807441234588623e-01 5.3264963626861572e-01</leafValues></_>
        <_>
          <internalNodes>
            0 -1 11 -53477686 -229913982 -1056450341 547870729
            -1047542460 -552893814 295416011 1433401343</internalNodes>
          <leafValues>
            -7.1892327070236206e-01 4.7747966647148132e-01</leafValues></_></weakClassifiers></_>
    <!-- stage 2 -->
    <_>
      <maxWeakCount>6</maxWeakCount>
      <stageThreshold>-1.4084452390670776e+00</stageThreshold>
      <weakClassifiers>
        <_>
          <internalNodes>
            0 -1 8 -286069001 -273166345 -269225997 -9189519 -1343043329
            -1363685641 -537399305 -277361289</internalNodes>
          <leafValues>
            -6.5972220897674561e-01 7.2482967376708984e-01</leafValues></_>
        <_>
          <internalNodes>
            0 -1 53 -513 1464289103 -405799448 1601175039 -12586246
            387839983 -219745622 -1049857</internalNodes>
          <leafValues>
            -5.6649523973464966e-01 7.2173613309860229e-01</leafValues></_>
        <_>
          <internalNodes>
            0 -1 72 -233570313 1375989507 -93066740 -482083327
            -1594374949 551543391 -522729386 -335558433</internalNodes>
          <leafValues>
            -5.6677579879760742e-01 6.7405420541763306e-01</leafValues></_>
        <_>
          <internalNodes>
            0 -1 2 -253035569 -219748370 50417856 1405833351 -523241525
            1103154632 1441752015 -201361585</internalNodes>
          <leafValues>
            -6.8159091472625732e-01 5.6164705753326416e-01</leafValues></_>
        <_>
          <internalNodes>
            0 -1 82 -1795289105 2146875327 -786499777 -4285681
            -523553537 -17925489 -125157634 -168526547</internalNodes>
          <leafValues>
            -6.6075670719146729e-01 5.2749139070510864e-01</leafValues></_>
        <_>
          <internalNodes>
            0 -1 78 154869047 1893119791 -721160225 -11273965
            -1933906945 -39089153 -17069125 -256343760</internalNodes>
          <leafValues>
            -6.7183709144592285e-01 4.8365768790245056e-01</leafValues></_></weakClassifiers></_>
    <!-- stage 3 -->
    <_>
      <maxWeakCount>7</maxWeakCount>
      <stageThreshold>-1.2662296295166016e+00</stageThreshold>
      <weakClassifiers>
        <_>
          <internalNodes>
            0 -1 67 -2621500 1732753237 -942708993 -2649289 -332665090
            -68981005 -1964336470 587202551</internalNodes>
          <leafValues>
            -7.9057592153549194e-01 6.4241164922714233e-01</leafValues></_>
        <_>
          <internalNodes>
            0 -1 30 1964761023 420690719 -581576289 -1075851106
            -579868161 -112537029 -53688116 -33568610</internalNodes>
          <leafValues>
            -6.5030229091644287e-01 5.9497350454330444e-01</leafValues></_>
        <_>
          <internalNodes>
            0 -1 22 -823219217 -3213322 -1076215393 1932572466 147524746
            -2418021 731870191 -143165593</internalNodes>
          <leafValues>
            -7.8230232000350952e-01 4.4893777370452881e-01</leafValues></_>
        <_>
          <internalNodes>
            0 -1 9 -275517449 -270539307 -441398318 -2759693 -1946091529
            1254310048 -347762189 -269008653</internalNodes>
          <leafValues>
            -6.6804385185241699e-01 4.9729642271995544e-01</leafValues></_>
        <_>
          <internalNodes>
            0 -1 46 -11010081 -549462241 -291526135 -1080034769
            1364848884 -797049802 -1199575809 -75498785</internalNodes>
          <leafValues>
            -5.1706397533416748e-01 6.6512924432754517e-01</leafValues></_>
        <_>
          <internalNodes>
            0 -1 18 -353903862 -87036396 -905850341 1348958496 49275723
            -622098918 9081823 1375719751</internalNodes>
          <leafValues>
            -6.9530010223388672e-01 4.9254792928695679e-01</leafValues></_>
        <_>
          <internalNodes>
            0 -1 3 -2098514 2146428906 250597618 49238474 1091301894
            1812841480 1900541911 1988096991</internalNodes>
          <leafValues>
            -7.2161716222763062e-01 4.2674285173416138e-01</leafValues></_></weakClassifiers></_>
    <!-- stage 4 -->
    <_>
      <maxWeakCount>7</maxWeakCount>
      <stageThreshold>-1.7983410358428955e+00</stageThreshold>
      <weakClassifiers>
        <_>
          <internalNodes>
            0 -1 52 -10749988 857075007 -1844322308 865326495 -107632436
            463175756 -191124340 1004273599</internalNodes>
          <leafValues>
            -7.4933332204818726e-01 6.2482756376266479e-01</leafValues></_>
        <_>
          <internalNodes>
            0 -1 38 1565588223 -16578544 -1653334785 -11728690 389061375
            -13104456 151013631 -2158949</internalNodes>
          <leafValues>
            -5.0441318750381470e-01 6.9628089666366577e-01</leafValues></_>
        <_>
          <internalNodes>
            0 -1 56 2064908255 1595381253 1683846157 -273164273
            -264654605 -1341148886 2028591354 -67125029</internalNodes>
          <leafValues>
            -5.7360428571701050e-01 5.7545638084411621e-01</leafValues></_>
        <_>
          <internalNodes>
            0 -1 60 833705183 -37939361 1963630079 -719754979 -87384913
            -106183265 -1161118721 -73753972</internalNodes>
          <leafValues>
            -5.8912229537963867e-01 5.7117515802383423e-01</leafValues></_>
        <_>
          <internalNodes>
            0 -1 7 -498139145 -544673010 -849915499 -271105705
            -1442121033 -557145917 -450988081 -6327785</internalNodes>
          <leafValues>
            -6.9407045841217041e-01 4.8022082448005676e-01</leafValues></_>
        <_>
          <internalNodes>
            0 -1 86 -407110661 1162800558 1149071363 -909258068
            1192606651 1254538080 1426552162 -606080125</internalNodes>
          <leafValues>
            -5.0219559669494629e-01 5.9232217073440552e-01</leafValues></_>
        <_>
          <internalNodes>
            0 -1 58 -1322231329 -685428615 353669343 2100400157
            -132050689 -80019092 -1124550469 -116785000</internalNodes>
          <leafValues>
            -6.7085742950439453e-01 4.4023725390434265e-01</leafValues></_></weakClassifiers></_>
    <!-- stage 5 -->
    <_>
      <maxWeakCount>7</maxWeakCount>
      <stageThreshold>-1.8377274274826050e+00</stageThreshold>
      <weakClassifiers>
        <_>
          <internalNodes>
            0 -1 83 1056902703 -134686277 -771580033 -16976097
            -118261381 -21817221 -51441729 -193921156</internalNodes>
          <leafValues>
            -6.9062119722366333e-01 6.4227640628814697e-01</leafValues></_>
        <_>
          <internalNodes>
            0 -1 45 1595932671 1930673963 -272765649 -268440049
            -262275073 -52035681 -587363121 -16162</internalNodes>
          <leafValues>
            -4.9883916974067688e-01 6.5465092658996582e-01</leafValues></_>
        <_>
          <internalNodes>
            0 -1 14 -546378801 -70069522 -578710145 -236849632 67996047
            -893151014 1475303119 -134776833</internalNodes>
          <leafValues>
            -5.6842750310897827e-01 5.6674218177795410e-01</leafValues></_>
        <_>
          <internalNodes>
            0 -1 87 -278400017 -594745682 1699704834 -993025888
            1159848883 -1828429055 1970216978 -540019725</internalNodes>
          <leafValues>
            -5.0271540880203247e-01 5.9715241193771362e-01</leafValues></_>
        <_>
          <internalNodes>
            0 -1 42 -10500602 1839559678 688777452 1798264518 1977865190
            1978499711 1999106783 1615331311</internalNodes>
          <leafValues>
            -7.0136821269989014e-01 4.2218190431594849e-01</leafValues></_>
        <_>
          <internalNodes>
            0 -1 27 -833968897 -547732645 -730113057 1943242131
            -476329333 -19314423 -1682707713 -9107853</internalNodes>
          <leafValues>
            -7.2438788414001465e-01 3.8143989443778992e-01</leafValues></_>
        <_>
          <internalNodes>
            0 -1 74 -76284971 1912861461 1351667716 -1288965373
            1616220381 -1589378046 -1563194804 -1410347809</internalNodes>
          <leafValues>
            -6.1943536996841431e-01 4.6497336030006409e-01</leafValues></_></weakClassifiers></_>
    <!-- stage 6 -->
    <_>
      <maxWeakCount>7</maxWeakCount>
      <stageThreshold>-7.9805016517639160e-01</stageThreshold>
      <weakClassifiers>
        <_>
          <internalNodes>
            0 -1 51 812652731 -12771971 980564221 -650437505 -1139220785
            -15200740 -1082610437 -585626611</internalNodes>
          <leafValues>
            -4.7228583693504333e-01 6.9005274772644043e-01</leafValues></_>
        <_>
          <internalNodes>
            0 -1 5 -70323201 -35692785 -737735849 1573868737 -1566378305
            -328671001 -489688337 -67152937</internalNodes>
          <leafValues>
            -5.4254096746444702e-01 5.8052974939346313e-01</leafValues></_>
        <_>
          <internalNodes>
            0 -1 62 -43122993 1192226178 -786696088 -546576241
            1897650111 1461053984 2010108642 -2593</internalNodes>
          <leafValues>
            -5.8179581165313721e-01 5.3092068433761597e-01</leafValues></_>
        <_>
          <internalNodes>
            0 -1 15 -87294070 -221252848 59859223 -796921004 180926355
            -644642796 145548107 1372570975</internalNodes>
          <leafValues>
            -6.4520621299743652e-01 4.4893932342529297e-01</leafValues></_>
        <_>
          <internalNodes>
            0 -1 39 1936908031 -231669960 33512203 2132367730 1381149407
            -128025398 -1912779201 -78909618</internalNodes>
          <leafValues>
            -4.6823534369468689e-01 6.1407822370529175e-01</leafValues></_>
        <_>
          <internalNodes>
            0 -1 31 -400560373 -577299687 -1693199107 -552099827
            -125113925 -1074792290 -257906226 -185099965</internalNodes>
          <leafValues>
            -5.4150503873825073e-01 5.1440936326980591e-01</leafValues></_>
        <_>
          <internalNodes>
            0 -1 68 435232089 1066734745 -1052116001 721955133
            -1156754180 -21261863 -324162628 -1162303336</internalNodes>
          <leafValues>
            -8.0925732851028442e-01 3.4988114237785339e-01</leafValues></_></weakClassifiers></_>
    <!-- stage 7 -->
    <_>
      <maxWeakCount>8</maxWeakCount>
      <stageThreshold>-1.3182660341262817e+00</stageThreshold>
      <weakClassifiers>
        <_>
          <internalNodes>
            0 -1 13 -1048598 -1052758 -537920864 552599456 99088192
            74446847 1475868415 1468003835</internalNodes>
          <leafValues>
            -5.9930914640426636e-01 6.3652706146240234e-01</leafValues></_>
        <_>
          <internalNodes>
            0 -1 63 -16515105 -1625833713 -298894070 -15213297
            1885203063 1894839608 -396493699 -5889</internalNodes>
          <leafValues>
            -5.0052130222320557e-01 6.5740364789962769e-01</leafValues></_>
        <_>
          <internalNodes>
            0 -1 65 1360590078 -225966968 1371813116 1967982600
            806410426 464552328 352853291 2141913130</internalNodes>
          <leafValues>
            -7.3658066987991333e-01 4.2213633656501770e-01</leafValues></_>
        <_>
          <internalNodes>
            0 -1 26 -461272817 -184336377 -1743629793 -778878317
            -527856467 -75263989 -780035653 -193869821</internalNodes>
          <leafValues>
            -6.5984612703323364e-01 4.6501845121383667e-01</leafValues></_>
        <_>
          <internalNodes>
            0 -1 40 -732375329 -75956135 -1744658817 -201391895
            -1676607777 -26189220 -1744787473 -76864979</internalNodes>
          <leafValues>
            -5.1582229137420654e-01 5.9096705913543701e-01</leafValues></_>
        <_>
          <internalNodes>
            0 -1 37 1490802911 813699131 -520075948 -41365245 -774226517
            75632922 -825752315 -74779734</internalNodes>
          <leafValues>
            -6.1117017269134521e-01 4.8615169525146484e-01</leafValues></_>
        <_>
          <internalNodes>
            0 -1 23 -326107153 -780122752 -486508145 -545528416 12684458
            -259947798 115169934 -948444377</internalNodes>
          <leafValues>
            -5.3992110490798950e-01 5.5856347084045410e-01</leafValues></_>
        <_>
          <internalNodes>
            0 -1 87 -386926849 -436158748 -528535373 -976318936
            285324223 -1945832566 893724563 -136318297</internalNodes>
          <leafValues>
            -4.8830375075340271e-01 5.7939851284027100e-01</leafValues></_></weakClassifiers></_>
    <!-- stage 8 -->
    <_>
      <maxWeakCount>9</maxWeakCount>
      <stageThreshold>-1.1036784648895264e+00</stageThreshold>
      <weakClassifiers>
        <_>
          <internalNodes>
            0 -1 19 -817434905 -878516558 -311758893 -270139918
            1337718775 -273160205 234078451 -1353222414</internalNodes>
          <leafValues>
            -5.6862747669219971e-01 6.4860910177230835e-01</leafValues></_>
        <_>
          <internalNodes>
            0 -1 79 -13371577 1481883975 1073799744 -108533939
            1888740319 1613105931 -495269222 -486553378</internalNodes>
          <leafValues>
            -5.1697725057601929e-01 6.1485874652862549e-01</leafValues></_>
        <_>
          <internalNodes>
            0 -1 57 -52635441 -50667521 2147481599 -71729154 -18104353
            -1124556806 -25091 -71614661</internalNodes>
          <leafValues>
            -5.1420348882675171e-01 5.6349349021911621e-01</leafValues></_>
        <_>
          <internalNodes>
            0 -1 50 -1030563778 -254623334 -2050751977 2097501193
            -904753222 -233651328 1341540719 2036557578</internalNodes>
          <leafValues>
            -6.4556056261062622e-01 4.3720272183418274e-01</leafValues></_>
        <_>
          <internalNodes>
            0 -1 28 -528291954 1460899074 1476465605 -34220636
            1703660715 -1601666673 1351607007 1442011074</internalNodes>
          <leafValues>
            -7.2688108682632446e-01 3.6077985167503357e-01</leafValues></_>
        <_>
          <internalNodes>
            0 -1 47 2068047839 -97845504 -1920755937 1666127194
            845347066 -255584290 11403487 -1586482</internalNodes>
          <leafValues>
            -5.4972559213638306e-01 5.0006800889968872e-01</leafValues></_>
        <_>
          <internalNodes>
            0 -1 59 559020479 -1819157675 -1795086435 -770572029
            -402454453 -1449031656 -1467987527 -146941308</internalNodes>
          <leafValues>
            -5.8101075887680054e-01 4.6246480941772461e-01</leafValues></_>
        <_>
          <internalNodes>
            0 -1 77 314251581 -1136164455 -1324891397 -1790452967
            -1329573125 -1206604901 -2079651961 -1135047364</internalNodes>
          <leafValues>
            -7.3993325233459473e-01 3.5890567302703857e-01</leafValues></_>
        <_>
          <internalNodes>
            0 -1 80 -67906817 -1471004299 -2004270844 -104687341
            -1038487414 944259073 -930165176 -77361201</internalNodes>
          <leafValues>
            -5.3275525569915771e-01 5.1922947168350220e-01</leafValues></_></weakClassifiers></_>
    <!-- stage 9 -->
    <_>
      <maxWeakCount>9</maxWeakCount>
      <stageThreshold>-1.1812074184417725e+00</stageThreshold>
      <weakClassifiers>
        <_>
          <internalNodes>
            0 -1 34 -252653350 -100367973 -974458597 -158085101
            -889662581 -1538993976 -763885089 1394282255</internalNodes>
          <leafValues>
            -6.5645807981491089e-01 6.0124182701110840e-01</leafValues></_>
        <_>
          <internalNodes>
            0 -1 76 949165535 835885815 -842855305 -1078918893
            -400447301 -1297882983 -1013322850 -1510912</internalNodes>
          <leafValues>
            -6.5486377477645874e-01 4.3854480981826782e-01</leafValues></_>
        <_>
          <internalNodes>
            0 -1 81 -725551393 -388836672 -524252579 -493940205
            1213903191 -234716925 1179583027 -1633517</internalNodes>
          <leafValues>
            -5.8848977088928223e-01 4.9452540278434753e-01</leafValues></_>
        <_>
          <internalNodes>
            0 -1 4 -7864902 1292878730 -594496494 80192042 1636418418
            1830162496 1892136947 1570765259</internalNodes>
          <leafValues>
            -7.2167348861694336e-01 3.6010071635246277e-01</leafValues></_>
        <_>
          <internalNodes>
            0 -1 69 -602025726 1968267695 285331791 -846896865
            -300511062 -855138053 -693269573 1089387067</internalNodes>
          <leafValues>
            -6.8037945032119751e-01 3.6180493235588074e-01</leafValues></_>
        <_>
          <internalNodes>
            0 -1 66 1926987998 -92749116 904151389 -724240052 1872953451
            -1097785121 865803135 -83129586</internalNodes>
          <leafValues>
            -5.4889810085296631e-01 4.7426134347915649e-01</leafValues></_>
        <_>
          <internalNodes>
            0 -1 17 -554176769 145399540 -612676080 -109748908 746548235
            712146683 1064533079 -9189505</internalNodes>
          <leafValues>
            -4.7898954153060913e-01 5.7500380277633667e-01</leafValues></_>
        <_>
          <internalNodes>
            0 -1 25 1116269563 -911892143 -649912719 -950818224
            -1936358413 -1108819801 -1944063670 -872455968</internalNodes>
          <leafValues>
            -6.1089849472045898e-01 4.4280457496643066e-01</leafValues></_>
        <_>
          <internalNodes>
            0 -1 43 -530326838 -737427456 354 1376489493 -1610514232
            1376211588 849483403 -614743981</internalNodes>
          <leafValues>
            -5.3250312805175781e-01 5.5246955156326294e-01</leafValues></_></weakClassifiers></_>
    <!-- stage 10 -->
    <_>
      <maxWeakCount>8</maxWeakCount>
      <stageThreshold>-1.3036326169967651e+00</stageThreshold>
      <weakClassifiers>
        <_>
          <internalNodes>
            0 -1 12 -294715905 -538045108 -469794851 -136118384 23610863
            -3145851 1736398687 -34953</internalNodes>
          <leafValues>
            -5.7814335823059082e-01 6.2236511707305908e-01</leafValues></_>
        <_>
          <internalNodes>
            0 -1 71 -13373697 2117861179 -1086853609 -1153487085
            -1598234386 -532677379 -591467394 -4865</internalNodes>
          <leafValues>
            -4.9469074606895447e-01 5.6559228897094727e-01</leafValues></_>
        <_>
          <internalNodes>
            0 -1 61 290527359 -1311669929 -2112497441 -802123497
            -855964594 -5533429 -292844627 -31944052</internalNodes>
          <leafValues>
            -7.4957293272018433e-01 3.5565873980522156e-01</leafValues></_>
        <_>
          <internalNodes>
            0 -1 86 -817103877 1854729386 1702305936 1368113338
            1729622667 1447066474 1409765994 -538975353</internalNodes>
          <leafValues>
            -4.8702570796012878e-01 5.6914383172988892e-01</leafValues></_>
        <_>
          <internalNodes>
            0 -1 6 -451678497 -1521276889 1350684725 1232324687
            -1711216897 -1601730549 -397965163 -545788975</internalNodes>
          <leafValues>
            -6.3826733827590942e-01 4.2349940538406372e-01</leafValues></_>
        <_>
          <internalNodes>
            0 -1 10 1618461403 -496832904 1584746304 -262714666
            1249109599 1241578096 1513571966 -344467505</internalNodes>
          <leafValues>
            -4.6815815567970276e-01 5.7458448410034180e-01</leafValues></_>
        <_>
          <internalNodes>
            0 -1 44 -573585458 -552451370 130078464 -75309030 1233868851
            33574963 1166440731 1901556735</internalNodes>
          <leafValues>
            -5.8552235364913940e-01 4.7654923796653748e-01</leafValues></_>
        <_>
          <internalNodes>
            0 -1 38 -183453987 -1249701870 -1047424289 1497702409
            1778926267 -1736408919 2051034554 -604018050</internalNodes>
          <leafValues>
            -5.1050943136215210e-01 5.0273424386978149e-01</leafValues></_></weakClassifiers></_>
    <!-- stage 11 -->
    <_>
      <maxWeakCount>9</maxWeakCount>
      <stageThreshold>-1.5663152933120728e+00</stageThreshold>
      <weakClassifiers>
        <_>
          <internalNodes>
            0 -1 33 301946111 464600047 -983587 -196612 1040171007
            -1078575170 -1107507236 -4523080</internalNodes>
          <leafValues>
            -4.7064778208732605e-01 6.4425241947174072e-01</leafValues></_>
        <_>
          <internalNodes>
            0 -1 54 -772801617 386898831 -1795067772 -584986084
            -1022772805 590905899 -171650870 -67122193</internalNodes>
          <leafValues>
            -4.8946246504783630e-01 5.4310637712478638e-01</leafValues></_>
        <_>
          <internalNodes>
            0 -1 49 808500411 -543751493 274726961 426053265 805354427
            -670547440 -1724806017 -583204819</internalNodes>
          <leafValues>
            -6.0440731048583984e-01 4.5515146851539612e-01</leafValues></_>
        <_>
          <internalNodes>
            0 -1 60 823680479 -46587621 -712064543 1930428687
            -1207789397 -775452653 -895338049 -114681572</internalNodes>
          <leafValues>
            -6.6800749301910400e-01 3.7264534831047058e-01</leafValues></_>
        <_>
          <internalNodes>
            0 -1 29 -540934209 -278531597 -303173637 -302648649
            -288378885 -35936580 -19941449 -536902661</internalNodes>
          <leafValues>
            -3.6793476343154907e-01 7.2578203678131104e-01</leafValues></_>
        <_>
          <internalNodes>
            0 -1 0 -410524726 -110628734 557961290 -236905726 826852543
            -1999463253 1100694511 351257314</internalNodes>
          <leafValues>
            -5.3386914730072021e-01 4.6724086999893188e-01</leafValues></_>
        <_>
          <internalNodes>
            0 -1 88 -38800397 -9510182 -440917840 -354180826 1627780595
            335606147 1467573243 -542124145</internalNodes>
          <leafValues>
            -3.8576787710189819e-01 6.3377052545547485e-01</leafValues></_>
        <_>
          <internalNodes>
            0 -1 75 540163967 968921671 -2013263401 -419150831
            -2000538881 -206552975 -1608839969 -67312128</internalNodes>
          <leafValues>
            -6.5167057514190674e-01 3.9661806821823120e-01</leafValues></_>
        <_>
          <internalNodes>
            0 -1 64 -749210666 1326523142 -1610243958 -794486 1426561227
            1171595553 -534666677 1677445754</internalNodes>
          <leafValues>
            -5.7727515697479248e-01 4.4914460182189941e-01</leafValues></_></weakClassifiers></_>
    <!-- stage 12 -->
    <_>
      <maxWeakCount>9</maxWeakCount>
      <stageThreshold>-1.5874235630035400e+00</stageThreshold>
      <weakClassifiers>
        <_>
          <internalNodes>
            0 -1 1 -253036561 -259072050 872095936 -672181309
            -1041999921 1128542034 2011116171 -34993</internalNodes>
          <leafValues>
            -4.2720764875411987e-01 6.5225744247436523e-01</leafValues></_>
        <_>
          <internalNodes>
            0 -1 24 -813478309 -1624768533 -2066822059 -949787664
            264471699 -1216908941 -822110723 -565001766</internalNodes>
          <leafValues>
            -4.4360923767089844e-01 5.9019827842712402e-01</leafValues></_>
        <_>
          <internalNodes>
            0 -1 85 -1534597377 1087451216 549506576 -390141840
            160562187 -401078240 625666 -310379145</internalNodes>
          <leafValues>
            -5.4743987321853638e-01 4.9854579567909241e-01</leafValues></_>
        <_>
          <internalNodes>
            0 -1 41 1414431991 -243249240 67980183 -544943039 21104591
            -1330589406 328139211 -16686269</internalNodes>
          <leafValues>
            -4.8773941397666931e-01 4.8260706663131714e-01</leafValues></_>
        <_>
          <internalNodes>
            0 -1 84 -711470888 -1072696207 42730505 -2011750397
            1502208545 268484737 -804080733 462416810</internalNodes>
          <leafValues>
            -5.6683182716369629e-01 4.2285770177841187e-01</leafValues></_>
        <_>
          <internalNodes>
            0 -1 70 -610675950 -718155744 1494305842 -275789235
            -238185546 1099014281 -930636909 13482203</internalNodes>
          <leafValues>
            -6.3977611064910889e-01 3.5522189736366272e-01</leafValues></_>
        <_>
          <internalNodes>
            0 -1 73 898760671 286498817 29376884 -1998320 1078487757
            -459161331 -1862185910 -1209542431</internalNodes>
          <leafValues>
            -4.9465557932853699e-01 5.1575207710266113e-01</leafValues></_>
        <_>
          <internalNodes>
            0 -1 36 -913317142 -1054662656 1342218335 1460753285
            -2130068786 -1522286462 37863587 1398526051</internalNodes>
          <leafValues>
            -5.2662241458892822e-01 4.6237957477569580e-01</leafValues></_>
        <_>
          <internalNodes>
            0 -1 32 -786441250 -892617766 289764167 1863018241
            -1060904855 -1607335897 333024777 1000074227</internalNodes>
          <leafValues>
            -5.2833271026611328e-01 4.6519002318382263e-01</leafValues></_></weakClassifiers></_></stages>
  <features>
    <_>
      <rect>
        0 3 3 5</rect></_>
    <_>
      <rect>
        1 9 3 4</rect></_>
    <_>
      <rect>
        1 10 3 4</rect></_>
    <_>
      <rect>
        1 13 2 3</rect></_>
    <_>
      <rect>
        1 15 2 3</rect></_>
    <_>
      <rect>
        2 5 3 6</rect></_>
    <_>
      <rect>
        2 6 5 4</rect></_>
    <_>
      <rect>
        2 8 3 4</rect></_>
    <_>
      <rect>
        2 8 4 3</rect></_>
    <_>
      <rect>
        2 9 3 2</rect></_>
    <_>
      <rect>
        2 10 1 3</rect></_>
    <_>
      <rect>
        2 12 2 4</rect></_>
    <_>
      <rect>
        2 13 3 2</rect></_>
    <_>
      <rect>
        2 14 2 3</rect></_>
    <_>
      <rect>
        2 14 3 3</rect></_>
    <_>
      <rect>
        3 8 2 6</rect></_>
    <_>
      <rect>
        3 8 6 5</rect></_>
    <_>
      <rect>
        3 9 1 3</rect></_>
    <_>
      <rect>
        3 10 2 5</rect></_>
    <_>
      <rect>
        3 11 2 2</rect></_>
    <_>
      <rect>
        3 11 3 2</rect></_>
    <_>
      <rect>
        3 12 3 2</rect></_>
    <_>
      <rect>
        3 14 3 2</rect></_>
    <_>
      <rect>
        3 15 3 3</rect></_>
    <_>
      <rect>
        4 12 1 2</rect></_>
    <_>
      <rect>
        4 12 2 2</rect></_>
    <_>
      <rect>
        4 12 3 1</rect></_>
    <_>
      <rect>
        4 12 3 2</rect></_>
    <_>
      <rect>
        4 13 3 4</rect></_>
    <_>
      <rect>
        5 6 2 6</rect></_>
    <_>
      <rect>
        6 5 5 4</rect></_>
    <_>
      <rect>
        6 13 2 1</rect></_>
    <_>
      <rect>
        7 3 4 7</rect></_>
    <_>
      <rect>
        7 4 3 5</rect></_>
    <_>
      <rect>
        7 5 3 7</rect></_>
    <_>
      <rect>
        7 6 5 4</rect></_>
    <_>
      <rect>
        7 16 1 2</rect></_>
    <_>
      <rect>
        8 5 3 5</rect></_>
    <_>
      <rect>
        8 9 3 2</rect></_>
    <_>
      <rect>
        8 9 4 2</rect></_>
    <_>
      <rect>
        8 10 3 2</rect></_>
    <_>
      <rect>
        8 11 3 1</rect></_>
    <_>
      <rect>
        8 16 3 3</rect></_>
    <_>
      <rect>
        8 17 1 2</rect></_>
    <_>
      <rect>
        8 19 3 3</rect></_>
    <_>
      <rect>
        9 5 4 4</rect></_>
    <_>
      <rect>
        9 5 4 5</rect></_>
    <_>
      <rect>
        9 7 4 3</rect></_>
    <_>
      <rect>
        9 9 4 5</rect></_>
    <_>
      <rect>
        9 10 3 2</rect></_>
    <_>
      <rect>
        9 10 4 2</rect></_>
    <_>
      <rect>
        9 11 3 2</rect></_>
    <_>
      <rect>
        9 15 4 2</rect></_>
    <_>
      <rect>
        9 16 4 3</rect></_>
    <_>
      <rect>
        9 17 4 3</rect></_>
    <_>
      <rect>
        10 4 4 5</rect></_>
    <_>
      <rect>
        10 5 4 5</rect></_>
    <_>
      <rect>
        10 8 2 5</rect></_>
    <_>
      <rect>
        10 12 2 2</rect></_>
    <_>
      <rect>
        10 13 2 1</rect></_>
    <_>
      <rect>
        10 13 2 2</rect></_>
    <_>
      <rect>
        10 14 2 1</rect></_>
    <_>
      <rect>
        10 16 4 3</rect></_>
    <_>
      <rect>
        11 5 3 5</rect></_>
    <_>
      <rect>
        11 7 3 5</rect></_>
    <_>
      <rect>
        11 9 2 2</rect></_>
    <_>
      <rect>
        11 9 3 2</rect></_>
    <_>
      <rect>
        11 11 3 4</rect></_>
    <_>
      <rect>
        11 14 1 1</rect></_>
    <_>
      <rect>
        11 15 2 2</rect></_>
    <_>
      <rect>
        11 16 2 2</rect></_>
    <_>
      <rect>
        12 4 3 5</rect></_>
    <_>
      <rect>
        12 4 3 6</rect></_>
    <_>
      <rect>
        12 5 3 4</rect></_>
    <_>
      <rect>
        12 5 3 6</rect></_>
    <_>
      <rect>
        12 12 1 1</rect></_>
    <_>
      <rect>
        12 13 1 1</rect></_>
    <_>
      <rect>
        12 14 1 1</rect></_>
    <_>
      <rect>
        12 15 1 1</rect></_>
    <_>
      <rect>
        13 5 2 6</rect></_>
    <_>
      <rect>
        13 6 3 5</rect></_>
    <_>
      <rect>
        13 9 3 3</rect></_>
    <_>
      <rect>
        13 12 1 1</rect></_>
    <_>
      <rect>
        13 13 1 1</rect></_>
    <_>
      <rect>
        15 8 1 3</rect></_>
    <_>
      <rect>
        15 8 2 5</rect></_>
    <_>
      <rect>
        17 9 1 2</rect></_>
    <_>
      <rect>
        17 10 1 2</rect></_>
    <_>
      <rect>
        17 11 1 2</rect></_></features></cascade>
</opencv_storage>
